0.3411050818263437,-0.44058723821342394,-0.7951488224438574,-0.33395888789761563,0.2412034622982293,-0.5341854991788886,-0.630075801421567,0.9494062589078156,-0.11133292245054038,-0.05403931187474642,0.5394789362007526,-0.4664781339162898,-0.42050465581806495,0.5637911073232238,-0.02595770037811551,0.33678679205318907,0.5180164814994497,0.07546089636995523,0.27812474368448403,-0.5726716640680845,0.462834636589859,-0.24616473331809585,-0.9465111048239141,0.8589156092919075,-0.6900182534055939,-0.637393783683706,-0.20504901233931982,0.8565981017639679,-0.3048785347793004,0.9053361839046987,0.9670082488394942,-0.09586686129481148,-0.137330328396148,-0.29362521798140073,0.5218519054010335,0.12315563520452422,-0.9717893435541705,0.12473488356514184,-0.7459101610046113,0.48443450937485655,-0.7483962615458781,0.2586551710178244,0.3347697925185895,-0.14554972717600267,0.44169147563185773,0.36771654408169985,0.1270587093547646,-0.34408009741608425,0.5295352677450715,-0.5789787844917373,0.9581998658757438,0.008784242305190038,-0.9243792167960942,-0.8259169538114237,-0.09286473959054753,-0.3814341583432317,-0.38251006549595146,-0.5162814596127028,0.8644458328274949,0.3918932153778789,-0.0822265344969868,0.18936919497704174,0.13102764035693526,0.7843807624711072,-0.061387895753332034,-0.17907451337056313,0.6441892396797475,-0.7760580117793956,0.8469714320606694,-0.3627358447746092,0.5561021090715998,0.6045039412348097,0.6469296107168235,-0.9436607708324555,0.32492583348703474,0.795761134676109,-0.8659452074116969,-0.5930982575627104,0.7803089032520416,0.4332110248642185,0.7984031849094694,-0.8867672404138305,0.6138939150646245,-0.24495734964640326,-0.9979436178146237,0.9190799540970631,-0.2654170850060056,-0.7463440215810795,0.32953071002591106,0.5036685551830378,0.48434213224980294,-0.020250222966713388,0.2842234194203165,0.3295346388105806,0.5854557082753205,-0.6731091165125456,-1.041130557393026,-1.0045390325213057,0.3371259832127088,-0.9756348551583641,-0.8737772759377739,0.8105539476866609,0.20197661522235458,0.7622181717517467,0.3676609671163744,0.15727847585838015,0.0388504352440417,0.25262745962884914,-0.8176694787095978,0.5007519090505628,-0.41377472616034927,-0.15977063903121191,-0.4361989875056933,0.780442582652187,0.727645823737171,0.8034099354271727,-0.9395268484915651,0.44329697653517375,-0.541921998972304,-0.5357879215699445,-0.38601752359544933,-0.7887061054125877,0.07701157243387723,0.22825363689227673,-0.8846840105029985,-0.680960048113629,-1.0865058449681024,-0.38287106254238323,-0.40092927919488586,0.3235625961254593,-0.5903831858690997,0.4741443442831103,0.3598310633604019,0.7235853204877338,-0.4424723863320445,0.24499199121151014,0.37317847459228926,-0.7199517543079721,-0.5145853770774129,-0.6288193846150782,0.3257214843288634,0.24916702398884705,-0.7844111615011979,0.9441129503662684,0.6053452728020061,0.4685437902992307,-0.42018835278815997,0.18160020980982672,-1.0425066639944705,0.6574753292874903,-0.2785960532735528,-0.08159918338635495,-1.166159822813133,-1.408423661164675,-0.06072571181957705,0.3929190150267191,0.2119749407072596,-1.5354011881911687,-1.5227296089982219,0.2933398587966065,-0.9424391550367476,0.5095324006327783,-0.5285255242909023,0.7597661120260097,0.17952470708756554,0.1928934182388773,-0.797566531945179,-0.10722910479266123,0.7778137654436965,0.9283843999109234,-0.9460698316767591,-0.9150252816552051,0.3184138271838053,-0.3388403132107262,-0.4575108069608088,0.13542440347568252,0.19301925986820276,-0.6957908201890078,-0.5566469827240158,0.44121938106150765,0.06785725845565076,0.4719123540432185,-0.10075520146265592,-0.17044394654296408,0.42789512203813596,0.14161396280274885,0.19399436618359583,-0.5869812346569272,-0.5505314684842314,-0.7044756129782688,-0.4149175729617758,-0.9511446391605984,0.46622640417068795,-0.9210285936595847,-0.7207662032484154,0.8709761537901406,0.2976900065899901,0.9143250125129259,-0.2032168026056802,0.32494354686241467,0.8550791439004223,-0.21794051237039674,0.03932757484197427,-0.7844236323412751,-0.9914396702039503,-0.45150133663072406,0.3741953818528172,0.5599121388977515,-0.3167221917465989,-0.6884635255736596,1.1742235111792343,0.4251508230934649,0.018177451979583672,0.6847518503945397,0.4636051611068417,-0.6345428521643611,0.5723134351093008,0.06269565310982786,0.34719855916077846,0.10840592352513947,0.2894649147058325,-0.451471179512664,-0.3526270225457755,-0.7458926873911966,-0.03661282321119752,0.05648330408772595,0.1626296972285648,-0.13649411197499006,-0.04126908422185398,0.8682277304189298,0.5753251772357891,0.6073793334269131,0.45715389287779756,0.6743764093369093,0.8866788535683158,-0.24787508754309953,0.8041670299203701,0.6939076350872749,1.5654306750895184,0.33116624673534883,0.07125192978117845,0.10457807590102852,0.04411958430451456,-0.13481084121885759,-0.2541278722708723,0.5342939729302212,0.3011399768041141,-0.10676208857331113,-0.26890384518635363,-0.041024947738806605,-0.6083269102813533,-0.25047688505517196,-0.882563489994866,-0.6722978213749273,0.43314726854708074,3.2197932824717945E-4,-0.4905596192769938,0.9140270924743226,0.41258440794102585,-0.005949660722660004,0.7016738452002613,0.9242408844964785,-0.4528140905038745,0.2309589196650966,0.87870379375988,0.9606189057389414,0.5049617162778512,-0.2759739188543615,-0.3951312143167359,-0.7497534736719017,1.1066131069179457,0.30358256250858345,0.7153529992469576,0.3656134233715469,-0.24127948105081354,-0.2733208552395253,-0.39288535838051963,-0.5045809978499469,0.5063825148015858,-0.8812610201051823,0.957279227574553,-0.5931023917056439,0.5396679611611008,0.6730923894240416,0.2807019484173431,1.081452256290459,-0.2190366250597374,-0.40056328752140635,-0.4080280293425545,0.3442510907401131,1.4468666643214094,-0.05630556508369292,0.33592202952509687,-0.14912790817814497,0.16873244836428417,0.07947363383597347,-0.07291248631430397,-0.05236448385906556,0.18586690433580494,-0.07110365794882771,0.19759096708752283,0.46276979820911734,-0.2581455266970623,1.2268272309719748,0.5833637432696273,0.20729930857065892,0.5585729467619924,0.2567403980962757,-0.9693706755195355,0.9462870139775963,-0.6483878380998922,-0.741550007500802,0.29091753005647136,0.283811594585737,1.3395188713041997,0.9301149503575938,1.4980044610771683,0.5829473662858321,0.8122362323670171,1.3535578318860506,0.5759292948696597,0.06018567493933868,0.14479886578345363,-0.7920912877395461,-1.0016849804863608,0.9188123468147475,0.7289710054631299,-0.10968857756937751,-0.45848704264278506,0.6322290208025462,0.04788908221422234,0.2541449500582097,0.7834636993716361,-0.9008928228480997,0.8082729514494698,0.47169976574079664,-0.19459933711671762,-0.4483755736276245,0.12850619544787678,0.3235603890951187,-0.01896090872007861,0.05130981090456879,0.16401552925263568,-0.23423237135034217,-0.09298608833689453,0.6122137793153201,0.7916549280279348,0.6282674098447549,1.1893406700783766,0.6539779604431457,-0.43332121079902325,-1.8649825474593058,-0.23179316842637743,-0.912069486573498,-0.13306562063279284,-0.4608634101506139,-0.39773062801890957,0.16595616697092716,1.4906516409000259,1.0645115920717558,-0.5746406550994666,0.9328468289727632,0.6571016090252826,-0.7808145616941797,-0.5376698962786517,0.24808691020953044,-0.7680422370874904,-0.8334953749350877,0.45498670136216246,0.3407767917434251,0.5593354306650592,1.4308076993640162,1.5983976832220712,0.5834698284186599,1.532111161997377,-0.6826370540858678,-0.7053677895395765,0.0020430445359760335,-1.0314968281565078,-1.3600616502444325,0.37120612922583435,-1.1093363342881117,-0.09064566844735325,-0.5827085769571553,-0.38124872478405164,0.826734173141673,1.530855983115662,-0.1825370978983395,-0.18032135685012263,-0.5353787030766971,0.3069339199452157,-0.4296563264285478,-0.27555496054209505,-0.863903496958748,0.016230288601048803,0.32140798232663914,0.780518639320257,-0.22350926346170155,-0.2788413602576857,0.7111816771055706,1.7911212839848378,1.5373561473717687,0.17661054939909115,0.5322823282637329,-0.7903112003004452,-2.0498904886284897,-1.735050168324126,-0.8443727055632069,-0.38010844907166447,0.33709743521673025,-0.6767625422619086,0.6577820976175487,1.2436764965792888,1.1303014406488165,1.8046979839587771,-0.2058911582075754,0.8709584843324616,0.742942197942951,-0.7926060319629158,0.9064235545507133,-0.10896146576776178,0.060503051490994775,-0.6741786857416672,-0.2703292805508912,-0.5591079811485418,-0.4741960032610299,-0.03908555025498926,0.5813360215920051,0.21021667754232737,-0.18636073216177454,0.13384149870357684,-0.6922248985193361,-2.0801183252293485,-1.1096133252410993,-2.602766995048798,-1.8900319065335531,-1.904603585089305,0.45152056037419686,-0.17594250534934236,-0.5991124288857813,1.7558605592320824,1.4650582298003294,0.28711822726813696,-0.05759295940765945,0.36902427809691196,0.859705585645187,0.2546341490258866,-0.26759383112030677,0.2848318782625976,-0.576805698101168,0.22571621914892925,0.9752048308766015,-0.18605707636537755,-0.16804707081276843,0.33465049322075396,0.954972320455796,1.30975628161209,-0.2693236301152195,0.2892903260435163,-1.0393604453428895,-1.8746270445384154,-1.2615592100902748,-1.5951905383277838,-1.804660098440605,-0.6953219928705815,-0.7393320912537562,-1.0659022992805958,0.22421315060273264,0.8701007167619677,1.2009751210207773,0.5613517830630715,1.2844028453576495,-0.8660528276001396,0.49705981519032405,0.7120856640174582,-0.9096096651624619,0.04951863842554283,0.7633389884331496,-0.525245272747701,-0.05976249907736214,0.8142179384569722,1.0123861414232327,0.9887184066112159,1.3261865309285894,1.3584621492536946,-0.5965364667663804,0.33148483525900596,0.20557625970068213,-0.7569733144638859,-0.9734220700217261,-1.2161269438934559,-0.6298230748297025,-1.3660542224902499,0.3593082968167969,0.36652484249293155,-0.6833854595260823,0.3186045984137197,0.23846418548890225,1.0690929596925451,0.21835579900658114,-0.9663240526226704,-0.7365810481465448,-0.8643181081916026,0.8287768730067224,-0.34909884611588304,0.41111081111088943,-0.1751874217973446,0.36022033465510933,-0.23550943970831442,0.4959078180759719,-0.2704685440205317,-0.6250248914055696,1.125534917553702,-0.5785614855598705,0.023545164847012183,-0.2425074173672874,-0.21468795107783095,-1.071795131775582,-1.5045861262315854,-0.7337382833561186,-0.6622467242661311,0.6023784033204198,-0.5516014801927133,0.07925047693916695,0.6020148972626814,0.5820847543814162,-0.8612234514776113,0.3091283272214795,0.14799316860876363,-0.2059041636964407,0.054769266195532164,0.9461847472692406,-0.46165455609030515,0.3898806847512952,-0.5117334975988603,0.5706713450286347,0.4182590182255726,-0.10055528123089418,-0.13547518977213097,0.7846280586205735,-0.07938831206178738,1.3391948694966516,0.5582717466431958,0.15255687210229707,-0.3975304627406312,0.10584685959354678,0.16631455252666486,-0.6455799338228178,0.5497865290362871,0.8518677733381838,0.8565688329001572,0.45587336725606964,-0.5848979896841627,-0.5981974202084175,-0.9017981791959504,-0.2960740208814312,-1.139382144015721,0.5052054495555207,-0.7018225826490879,0.379422508143584,-0.7857039809770425,0.7985058784259558,0.06347692513342382,-0.9460338828509854,0.8707343562464686,-0.38641086329415203,0.41857505014195934,-0.7213450022925392,0.6718451744445919,-0.3071176437878049,1.3031329123099795,-0.6512893220636456,0.06734781426454414,0.5059745137179299,0.6850051985220987,-0.6401951087445364,0.176008568744669,-0.14151711232968905,0.30403794626621244,0.6958150830714834,-0.10732047518448186,0.7395714075659343,-0.7642429568383757,-0.430701046574242,-0.03212152123629229,-1.0613830609296866,-0.36194547800481447,-0.05726977357641205,-0.5618916155108873,-0.8505149393411344,-0.15721302286597608,0.44964637601190033,-0.8956673886242095,-0.8310737048705436,-0.4967072353679361,0.43607053804971296,0.5226691166338397,-0.015686666111668055,0.8253123183916146,-0.5112950726772595,-0.4740982186080741,-0.005211301349271467,0.17926208767999333,-0.10128475381086809,0.10678297016640928,0.14814647703725178,-0.16230632819175883,-0.762970276738905,-0.26815354540768455,1.0228198397573256,0.7265780743470627,-0.914660956922611,-0.24838692357620587,-0.5548270579868304,1.0028633796716158,0.6508958267188207,0.45647153404147445,0.570388652939235,-0.2501959873141703,0.5837851333325679,0.8750729902990491,-0.891755466372441,0.32896329405595914,0.5026243103896866,-0.8762775660110873,-0.616497882886949,0.3041453830998111,0.15202082642577863,0.6656375866076878,1.362147045869535,1.065024757239562,-0.0013238299447829594,-0.5404553950293138,0.43983790965115777,-0.10302770169750497,0.42218754420034227,-1.0249527933832763,-0.10819080924206635,0.7345006568670843,0.7254655678736365,-0.8352093001263456,0.5195636769320716,0.5245707753391451,-0.6282581140788834,-0.9937903165943727,0.3951152565135412,0.16249359965849597,0.06905509146045774,-0.44102053525556884,-0.13608940700952685,-0.11446204955142009,0.7549812740042962,0.44032194942926856,0.21168139211741077,0.26458000496822076,0.29726862305537044,1.2067618114688283,0.5778549805435294,0.2517945094805219,-0.8156919725518013,-0.9870655421829634,-0.9212522522399677,0.6858964338088265,-0.46032804078986334,-0.7955283508455333,0.28962955580837035,0.5080346113558373,0.25190655111400095,-0.08028375005077185,-0.38501020796546737,0.6758034076526361,0.6538696632522363,0.37626697037043444,-0.521835308077937,0.5758827332099448,-0.4647388797504117,0.4115705001601717,0.6957553806957227,0.7450826195922934,-1.0073625481235036,-0.5374052316422717,0.35630156832084764,0.514104718196938,-0.7608977241063788,-0.1647280846733863,0.5188865948640142,0.8204392461403375,-0.1937891712844459,0.8751602655381279,-0.5877026517278089,0.10731582676645098,0.6564389309444806,-0.8807464384435121,-0.3488353438799385,0.711918889500085,0.04743135006422466,-0.7809807053612143,0.18845954993471425,-0.7723961415764067,0.6634362273718744,-0.9558050066750954,0.559259238361878,0.4429342764423416,0.6949449188007597,0.013937059503626559,0.4826175025915924,0.7903268505729288,0.4081900234186214,0.7900378732380092,0.3059751332601675,-0.18152751458476427,-0.25097537052059177,-0.8741811830846085,0.04762823897468522,0.24553982921083858,-0.9950057405851636,0.14428502078147715,0.07337075005797555,-0.38611702484413546,0.8357494709024129,-0.6489935760535228,0.703679052984626,0.6728568420610419,0.5539416425763779,0.9210868496096556,-0.9469924085495849,-0.7443181659066773,0.4391326912056108,0.31847905540976806,-0.8127143008068929,0.6044200756579419,-0.9198583185467406,-0.5629320389552428,0.5824950723382876,-0.006677418276051839,0.26664073407650846,0.5968422911313997,0.2767290166696761,-0.6860738893732772,-0.21129539104100203,-0.781952654089338,0.3633347892718495,0.1746185656438346,0.6534076205941872,-0.07307257230507114,0.6690786039994261,-0.9152218514328494,-0.30954724451360627,0.4327179751444201,-0.18704979396904453,-0.9554079010895971,-0.7057910444152615,-0.0684365845629773,0.5228661148405749,0.43392676613050596,-0.8625778924733731,0.02155348561498971,-0.918329926788195,0.4783861628212831,0.09225676140874395,0.15408442455153248,0.08047006494848374,0.7679616899109794,0.3072161936065376,0.5002692380446319,0.2764928200566874,0.31344209591342587,-0.5861219039745063,0.7771351150850496,-0.7157245629001354,-0.5519833172061703,-0.82472465364376,0.0568624904644639,0.07315674092238433,-0.48372729148677296,-0.4618597614275779,-0.12666371303967283,0.8006697961346891,0.7400510393232027,0.014123084589550139,-0.9562058415504122,-0.6194218308328108,-0.08960773223439511,-0.4095156013162087,-0.39987905640766425,-0.6340605184721086,0.6270689003242571,-0.041347053746615625,0.46687467063210697,0.2217203453265757,-0.3080337341656503,0.7494307774905871,-0.23492900298911068,0.8681268297491531,-0.04015995174473397,-0.32348246897023136,0.5724165248479041,0.4949556342934751,0.4597435039864447,-0.9845824525267378,-0.6109870857905573,-0.9210874846364949,0.922683915064981,0.682682740719909,0.1342158597003964,-0.22001687217906363,-0.014167265299575682,-0.6691640318383134,-0.007723907494516569,0.44958454427632444,0.2908796146647423,0.33720952753692823,-0.45807445741098607,-0.14763545961712743,-0.5461132329594922,-0.6596756610356087,-0.918165477428522,-0.11484330832556644,-0.5437354784478359,0.06532576590768824,-0.7076174788807108,0.07074095625130661,0.3912560539191443,-0.4196167703611231,-0.5848003067902128,0.9106987078284237,-0.30241637344941025,0.8388504237998525,-0.014548165365822768,0.3007923672503452,-0.9783252590044804,-0.6126254146230479,-0.18214120320264549,0.14394112901139455,-0.3278472276535622,0.4580331707152474,0.4259493324289201,0.5400031401905787,0.2650412107338229,0.3129671023133873,-0.6549267662668043,0.4882170912050401,0.6053973590386958,-0.32712898277960245,0.933206463964547,0.9072956067638758,0.11085596725836955,-0.6639098722948606,-0.8604001985475729,-0.04019674630863345,-0.8451700642472288,0.6829654969148312,-0.5400768570903302,0.16205945388525564,-0.40736704073162944,0.661211679740693,0.8379921581878644,-0.43572869391913277,0.4250365237562456,0.05498407894143191,0.6212820491789375,-0.5866169869558313,0.08457142268552942,-0.613264546041876,0.8693819796262531,0.1320728106716319,0.11017854168697996,0.5967743057951511,0.23765481312551606,0.19331868988566647,0.1628761230373741,0.8483806139269061,0.5212905061395037,0.5389387974761635,-0.7592593179889131,-0.7727583073359606,0.4895376946966832,0.5435001396702037,0.7540944651302471,-0.042221492888517675,0.2193295865851801,0.38034444331991235,-0.2937734634812887,0.5732443921741951,-0.5359188245926337,-0.5108768213365475,-0.1389570810334592,1.0672736130404992,-0.013228348464311786,-0.6705004550849986,-0.3283252737084659,0.9868062429654043,-0.03158048979966749,-0.8441554215040058,-0.3074523564775611,0.01487258765829913,0.13875865297653767,0.6251954415403995,-0.09456241264409804,-0.44128917424148684,-0.11368491509900935,-0.06379012290378838,-0.2965535592415703,0.6227889661271367,-0.2806402040621002,-0.47554118018750813,0.09286087941446579,0.8021797082116472,-0.5847379245861829,-0.5068885038917921,0.47817519855181695,0.06472185189808452,1.253712289023404,0.6083638532044855,0.4391538406551108,1.0596718285535287,0.5896139378903196,-0.6122704490776937,0.6612781419381394,0.6818943043955994,0.22219856440693841,-0.5932002976864703,0.6582489528010527,-0.012384369607450152,-0.3213770507488083,-0.09770359676734075,0.8113863211292189,0.5210610983048228,-0.1202276477734101,0.3941387981742789,-0.7126420101869404,-0.8218495415094029,0.10752432921033009,-0.29727884365180224,1.2860057070273627,0.8384144438966874,1.2123535736688393,-0.20946738104736606,0.16758401962856515,-0.09736235786191091,1.3717884285116093,1.3736402142279867,0.5391147455795201,-0.4172754030094201,-0.4557968502536601,0.04682124053345348,-0.22291796983876155,0.3913431484527354,0.0421592128677855,-0.491888030629891,-0.7344546252832979,0.781960346133119,0.2126204959505158,-0.0026280984285620423,-0.46324929331124065,-0.10539504485861273,0.6235376286648779,-0.9571842939132496,0.899781579560374,-0.7970549237427405,-0.2717386439914952,-0.2658822332957889,0.9330933233991668,-0.20271593484020142,0.751589835638859,0.1383665451260619,0.7997370059689236,-0.11839586335285755,-0.45751513535640415,0.19970733696781237,0.0836460717336559,0.5184613986321873,0.03894443165454394,-0.5621432712642208,0.6055154911580237,0.5398379935869514,-0.7000070993788294,0.8887045446807921,-0.24228267402040116,0.2947446569745795,0.38130338176817147,-0.6177500002344096,-0.1302833696279142,-0.5276352652475274,-0.036891341796167376,0.8083270633290429,1.1976101152379406,0.5951403960287425,0.8332536843454789,-0.37338466817025423,-0.6673396172276419,-0.7241490526979831,-0.6468789470274551,-0.720623427411511,-1.3277794170858253,-0.23114372400014663,0.2735638532058197,-0.09429695372982785,0.33588718007395385,-0.7553672417421532,0.3612141945294376,-0.7428933164081628,0.5153745711540394,0.6296195615473225,0.13253542144720137,0.950567237007414,0.3103286473002689,-0.35767463069733463,-0.37949975189773144,-0.43811038132092106,-0.8930536261232056,-0.3046367513596251,-0.6751846513744822,0.047775460232037194,0.8439494141279305,-0.6835884737267712,0.019474991998034086,-0.039949026512207296,-0.2045647980456106,-0.07468720463681616,-1.0536501736174577,-0.7288173638810439,0.48090341911250106,-0.6978388432078023,-0.5949949480036869,-0.8607054133945653,-1.1213744734335265,0.5619737801029591,0.6584807112155474,-0.7219935235887907,-0.8723458339945834,-0.22578257978795513,0.3499919749021565,0.5926707492857556,0.4090448534437312,-0.8299591946951617,0.5039731230628921,0.3797290482097737,-0.067468768088492,-0.8134753359426314,0.6778671900251017,0.43852424335775486,-0.1468058683090981,1.0736750674895208,-1.2335731901329128,-0.7878022323480541,-0.7655861161385,-0.4090454031808795,-1.7353789352335467,-0.19301201532147555,-0.4758231135878453,0.12167708893988112,0.11396688776517176,0.30182333131084577,-0.2578988174519472,0.43476192662267,-0.16026169035074864,-0.42019027487482513,0.04793834192694685,-0.585261638056808,0.14316298252589119,-0.3377442454641453,0.023907856817885657,0.020352843057716452,0.9671566215534273,0.4079897921873037,-0.2974066948104408,0.3396501838822974,0.2806201616167304,-0.9203883150156653,0.3647619925765993,0.015203625622229423,-0.47538647965668157,-0.6216420612829274,0.07748718486117186,-1.703085206609301,-1.115834052772358,-0.07977636392898503,0.3661688420718818,0.7145319166401333,-0.7730002114637852,-0.49057201975953746,-0.0764203833759847,0.6578075219716712,-0.6314488566463631,-0.06076088181342498,-0.6186887556622972,-0.07323185305135446,-1.1527365395021996,0.04151659443585556,-0.8567599865099166,0.11141426304356483,0.3140186124519584,-0.6442642440118289,-0.9516824562286159,0.5242022432767706,0.5559186089525439,-0.20234486343429614,-0.08221562365186785,-0.6080014326286922,-1.3760897164184451,0.022767052457621395,0.08993009539547187,-1.595653705481346,-0.39489458009205974,0.04696258232797112,-0.3889261100203032,-0.7351513744601058,0.3050310707684305,-0.10149245233064942,1.1222546975948242,-0.4918093631184309,-0.3748004592283288,-0.32330304555605294,-0.7230386368475802,0.3348939558010367,-0.4984344662143362,0.28402095151286166,-0.884657585201757,-0.7218026401714996,-0.549904262622049,-0.7658707854059954,0.40745953379669975,0.6795184623380064,0.5483347450498557,0.0624734675034048,-0.2081558369588277,0.29468195128112323,-0.6671574829679143,-0.4473848662484757,-1.7593563953558413,-0.3120348540009518,-0.7724600690171828,-1.5736540023413936,-0.16792659796837667,0.8704436487202297,1.0532363463119334,-0.06119754907517256,0.4423417405835621,0.5557580819230521,0.14316594408054104,-0.42606262369708015,-0.045541290708011516,0.14788683905755268,-0.49798099482018426,0.42342167724567037,0.820225496483289,0.41621112653463516,0.013274338882315995,0.012464153988074322,0.4791423501171712,-0.5275344765134025,0.28991595445722995,0.9023562622971312,-0.6949790930245084,-0.6512211362011344,0.31149923857767026,-1.134963727151167,-0.14807728694640654,-1.1199449841503435,-1.1362998447273591,-0.5227593748929247,0.18160642966439597,1.4077070768984996,2.267685699912714,1.0160330511335736,1.8050957834024266,0.03217945303181825,0.17105809426706384,-1.7062171247606108,-1.1161539883724967,-0.981213169451753,-0.7691619729513022,-0.13350184150110395,0.9512621814488111,-0.25677620238895604,0.9899020249254245,-0.3197995193348411,0.6690188128035288,-0.21956463705502038,-0.5942758806359076,0.010186405633767496,0.5538902789599197,-0.4780770617863353,0.574124110542607,-1.59758896812649,-1.55816357505553,0.009259616247022187,-1.0253361689442906,0.8387769726019825,0.843718475568423,1.081192991127675,2.1879217694995017,1.833606287528826,0.3101165982470979,0.14718470421295826,0.32207702895431206,-1.1282801643607907,-1.3315966345733996,-0.6350497907934056,-1.2215993675189394,-0.6306732184072369,0.5966993600173631,-0.24270044696620577,-0.9926693413275123,-6.395788668858149E-4,0.3516432535034395,-0.9630240913866401,0.19724188878425492,0.10729930554780348,-0.04453206483174625,-0.18650295172439296,0.4065764653637992,-0.6921903027216583,-1.304584464664394,-0.8897843303774435,0.10787053704537908,1.1744161632321763,1.3711802512627824,1.18833270553493,0.9065496755746106,0.413745302454645,-0.1918247667030252,-0.2569364727565105,-1.134676437053193,0.053784679657043526,-0.4295206468726829,-0.10099934065957163,0.2827013963067799,0.4618257867517586,0.0524459509804431,-0.8800949786553424,-0.2149920714680864,-0.21170802594824867,-0.7758386284591572,-0.059760212775403776,-0.6723599563104018,-0.4292694768340937,0.4211160297607022,0.6085282830275475,-0.47771292138910365,0.05176339356359375,-1.1143508197739977,-0.29994317967008,0.23353640567605236,1.2007579806507138,2.175467868934724,2.320728811502325,1.799068662020049,1.453818635444569,-0.2444467403927518,0.08769018021366187,-0.9657823709656684,-1.376023404539333,-0.37249810549580464,-1.1473310138661095,-0.5363113640629242,-1.0953114369963388,0.09191656937247261,0.5304194653133885,-0.7952506208005821,-0.6780578225989555,-0.8398072027475372,-0.8251755712107349,-0.2665726375868208,-0.5976763879179883,-1.193925578242451,-0.4931644193680029,0.21922959978597753,-0.6948755888584462,-0.5667931825320847,1.1446498064457287,1.1772842075171455,0.29976323018677553,1.4131019348158198,1.6907060339547517,0.8405448871522381,0.4302419036887509,-0.4155926345460738,0.28022215446110094,-1.2338505581018828,-0.6484737929626636,0.3085262055026458,-1.2452554734221863,-0.14376785118160892,0.10774319457843738,0.6607243813983195,0.6842866806903126,-0.8731605732924614,0.36542564260911803,0.7950462272350793,-0.8645322178317659,-0.10183291900598603,-0.02620408245105214,0.6021855066787677,-0.23679504150020303,0.3689011402125722,0.7945283944341099,-0.06240340583442905,1.2548245819765542,1.357141136547825,1.26229417618162,1.0956716790375762,0.03475839286903019,0.39752608194264183,1.1917362661376474,0.22548702573594684,-0.36084191657217113,-0.41322619983889974,-0.48205465436329753,-0.5182393040383748,0.1905082349919457,-0.8240661723012447,-0.6442361176477167,0.08789466627502564,-0.37978122146601667,-0.5678763641135396,0.47681374691331313,-0.41682667164535037,-0.8335039574918867,-0.16405992354418067,0.8903630710764028,-0.14379304837623258,-0.17703513623785433,-0.2820139583766378,0.600938986142142,-1.0304352950975983,1.020626258275499,1.1626988597993586,0.8388552607848331,1.2616905769557896,-0.568710458926066,0.9021096427814833,-0.06859392077052102,0.6050786779296128,-1.2658624435935408,-0.5294593096894129,0.37111144052448614,-0.7377400193049956,0.5365008719449429,0.3202551234732714,-0.1944930840682588,0.09501598549875238,0.16014481900907127,-0.1887257929257118,-0.4782904620323063,0.2660324383994706,0.5437589416931,0.8830862445325682,0.6695785369683611,0.10128294708291578,-0.48501460039687994,-0.03325896815098415,0.856950296363503,-0.12185772892410365,0.422751033636516,0.055192792311883704,0.8911053420514335,-0.2562239097461696,0.5660871264348544,0.3558263447680607,-0.8879293798445088,-0.18574821915369522,-1.0848707596980667,0.5710730390347308,0.9971592055307634,1.1390759899035559,0.5739312674117429,0.12992396809854462,-0.3139082141930303,0.8642031811938106,-0.26355772546205314,0.5509199253202333,0.8363158604868031,-0.42670069647701614,-0.6743454775369363,0.23070794619202534,0.28063597422626546,0.6890468806328789,-0.49187389707088186,-0.7432302025616891,0.2619082122137051,0.40152911957994414,-0.16669249670400577,-0.7738284708164784,-0.5862715887335955,0.0366589387318634,-0.26794181971523456,-0.11225225404858896,0.04646434859283936,0.5706725444120835,-0.6304584029760089,1.1349315853980428,-0.5031811782214802,-0.5064916496831664,0.07933444261182712,-0.18180662250834517,-0.6278479353638551,0.31115292779510617,0.6748065466567017,0.9823533227734929,-0.842656765157038,0.5526272370124161,-0.7110770641263029,0.3188876903350797,1.0803959076184302,0.4021542508410722,-0.9588417216418329,0.44470761907376016,0.6762177422661618,0.42657516741140006,0.10285335485359039,-0.9842799410536506,-1.138669420507848,-0.4688967601334876,-0.04190669755635762,-0.3999643610052809,0.501218415806948,0.7728705615864357,-0.7105409732503972,-0.9798222371488992,0.5702052604467277,-0.3462617548607389,0.7842299988401151,0.7579237229382745,0.14714710430238445,0.0786917263217313,0.963698418750047,-0.6379590890806386,0.3062457412913058,0.1829253132633013,-0.5577431281670548,1.034155175984807,-0.752321860586152,-0.397614091539841,0.08789284324660984,-1.0928802024075948,-0.3692148511387313,-0.703903375968097,-0.9929463746941471,0.5382246194016617,0.4219750839422116,-0.605785284332055,0.1390370948774075,-0.7613737835391091,0.3959326593250445,0.702972297408128,-0.04243094420732527,0.15364789974661128,0.5438329679919263,0.780129283790423,-0.8659031514305086,0.9665333405598125,-0.6331499743143123,0.00707277028220322,-0.3074741657430531,0.7441777830108744,-0.32808714768614955,0.873388077174929,-0.9376018877944596,-0.635989234941555,-0.40768143351388664,-0.221440654249281,-0.1358219321074935,0.9325915036909146,0.19488144185807896,0.6221102654442473,0.6053178469007231,-0.6384657096352829,-0.4099506527959418,0.41588604009580954,-1.1891595819847902,-0.050889880689671874,0.33939195974278064,-0.19281636398313726,-0.7452747822965509,0.05152825199981349,0.6888411144514635,-0.6069569393616084,0.45502286377041634,0.8263088478174797,0.11585711833563894,0.5625887111321258,-0.3217992333429507,-0.11595631105115634,-0.21991325664231232,0.08527661584240298,-0.13264020718283254,-0.6503663447545576,0.602662941995936,-0.034302032678712235,0.6916752980599501,0.7199761218527663,-0.14732561262457988,-0.7552410626411039,0.6740628420762627,-0.7707626503520413,0.9844309975442502,0.9764503763069697,-0.15324130699208713,0.6945063135384579,-0.4384543884509857,0.7513503938276365,0.12536803521029846,0.3962810530282728,-0.8679553890945747,0.09509387430994012,-0.4359602006204717,0.6674506987399376,-0.26671858545498406,-0.7700628394568445,0.32518225085703145,0.37693406814796737,-0.33058580511127755,0.6357161365764377,-0.2386267093260539,-0.05238208457677085,0.6907811847935708,-0.39365423538730737,0.30145037257630025,-0.31571649065047036,-0.70779731151391,0.5702076248154531,0.161169051817442,-0.44429212001910257,0.88835153731165,0.32757057683969104,-0.055213385965362294,0.2904344891101578,0.9175541759932033,-0.4445530980514387,-0.03888209920573593,0.5399362635003404,-0.45379748937019926,-0.05994834876159172,-0.8969994547289715,0.528909610955631,0.5775972415098107,0.11929973803938854,0.4769988547037711,-0.9090457223863975,0.4131840379232783,-0.7474597301701176,-0.3794347242023075,0.27890836338803804,-0.529215050469978,0.48199375784732346,0.10676936120133895,-0.15737539599771644,0.3335674887657749,-0.18987742180588207,0.6120949294602158,0.7829893378294899,0.08513441096865204,0.9894319629036494,-0.8893041272251843,0.9195005362865374,0.7802587806150121,-0.0940368058166543,-0.24110648804291657,-0.05026214523379413,-0.19257177538345394,0.6350070898424311,0.2465865226401729,0.8325726383864045,-0.9814959839862105,-0.14266888610719297,-0.0823624704260002,0.492981547569483,-0.1185449606889783,0.6464793712264707,-0.2008107221840134,-0.1751562261750954,0.06415084411483196,0.7724700378198326,0.8302549933598631,0.759115954281163,0.48624872191550605,0.6144804215708448,0.04281746227084704,0.7682962289158419,-0.8994715752371818,-0.4651238881400801,0.22406294378235891,0.5941033373923621,-0.22230239821401843,-0.8607946769339774,0.6762651167324969,-0.7861873365257352,0.5180074503060759,-0.7684544512027112,-0.9087733781716407,-0.8982932031957653,0.09207164141207835,-0.5281439043609295,-0.7309247943601127,0.695613762626341,0.24030377392357827,0.7517540669561737,0.43660225767431915,-0.3554781619829066,-0.5589558414881264,-0.8726016572671202,-0.7417772048997555,-0.10822503589347576,0.501587501971082,-0.21706856876580316,-0.7169740378580736,-0.06063094483909448,-0.21703704838632798,0.9451939147152193,0.5342756013847256,0.7423848514967084,0.7384603689751401,-0.0698077088620625,0.2231115256377446,-0.4013912948945042,0.6275347461139789,-0.4259279183478759,0.15609467457468895,-0.8730924271059173,0.760863684912505,-0.8139084728558577,-0.6933790428630469,-0.03105843757962523,-0.5610278723566104,-0.14159813635767704,-0.7668622489973915,0.20231174135193997,0.8659794200839175,-0.522850241270739,-0.447535604099188,-0.3807430940716716,0.7516647271119752,0.10172742930193435,0.5144274579543713,-0.9964711230652818,0.058834620715265094,-0.5221864585767264,-0.2010921634568497,-0.7005662055731422,0.4059094387283256,-0.31858540049339146,-0.2768712056118202,-0.5921971218439432,0.04613860149865778,-0.33013192871671126,-0.2904974575781898,0.9292601737858577,-0.1365433277489696,-0.9873227658353494,0.1766266583001055,-0.9355060448298238,-0.8399859595403563,0.11943066835214022,0.13841879565984994,0.846224337792755,-0.12014760387886447,0.2731255635660732,0.7286809826519498,0.39189925153276683,0.8860047903738778,-0.05376760950968641,0.7185808501081286,-0.3696056352474855,-0.4201545829325744,-0.21538147499413482,-0.6464366596146178,0.06639975388308138,-0.0036741899712078607,-0.3571609127551711,0.38143784331110403,-0.18988115117647772,-0.2702212104231465,0.3561773055174997,0.5675795629437423,-0.7670534988160612,-0.9284168525692863,0.6647944288060093,0.6515149869572692,0.9897245846422413,-0.30479146479369756,0.36315707640073414,0.35854303489863937,-0.9186334419174291,0.18083131852794287,0.18733893569470683,0.16497395636925505,-0.6802146228391375,-0.6240578473905013,0.42948659561368224,-0.12705980075800336,-0.37384415039106234,-0.1631442397011091,-0.15116771381067456,0.0895890035207774,0.6253932249973644,-0.7472128429207819,-0.09107342578718486,-0.19162131934058413,-0.593327058685411,0.36480552839771363,-0.8686803598068067,0.42117729571263074,0.1561785295957822,0.6124274404014912,-0.375114846841737,-0.6050360800380874,-0.15007920002560082,-0.19067561300200797,0.2758548272208945,-0.7610360427856657,0.5737216461819896,-0.176764818110152,-0.7514702559678008,-0.5265606941695139,-0.7640057665347285,-0.666426302270109,0.11577675942034055,-0.3213895692657997,-0.09773195473529536,0.21342591101045028,0.7613773228004743,0.9930878603484242,-0.1734613110112908,-0.24971813654174435,-0.714026993607416,-0.14042068970632732,-0.8509382094117087,0.28177172253591654,-0.6284216956031681,0.7614684142695256,-0.07630046829762221,0.09233261695847168,0.2212588351993586,0.23547796301958557,0.04043363950871348,0.15787477225968383,-0.15789683348767158,0.9177828564115849,-0.7019878969259099,-0.602331356667229,0.026811917523711405,-0.27267853894644084,0.4744427111677242,0.5266279904288125,-0.9287392843158727,0.09066599968000005,0.7928784249381912,0.5048336141072804,0.9595609302568329,1.0021899490718325,-0.5411840027507488,-0.6435944108914166,-0.09898699678152019,0.7003344610432631,-0.5549589129971977,0.4653182188707261,0.7855000212803336,-0.5373214168150597,0.9506686772185529,0.6676451277714646,-0.7391254627059081,-0.34053340191071757,0.4256420554982421,0.35202143937084185,0.4399908439228555,-0.8304436928243208,-0.5905812773360406,0.2873233206870105,-0.19888185848707557,-0.2042214030185897,-0.038509409742280135,-0.09628708674128694,0.8283246458204427,0.8088551956181014,-0.34598084269181667,0.014655248032280934,0.4126215780380411,0.17425204346302195,-0.6041197666799055,0.31478859267954107,1.1733291617484207,0.19381420234388605,1.0724599851220717,-0.14362313282807415,0.20990162299548493,-0.5684095147289809,-0.3311394291731299,-0.2498276719860328,-0.853894200661996,-0.864658874279735,-0.8179190355851675,0.019445157860720874,-0.8144028175004299,-0.427385472662017,0.272444268059171,0.714495187558001,-0.3465268805361254,0.7225422018741045,0.6915213965185426,-0.12333293893984422,0.3570982707928335,0.7721072845720095,-0.8638671171140556,0.3781210091567011,0.8067029715381575,0.46846922579853967,-0.38269385617955665,0.20612152358890728,-0.926818391878223,-0.8352213497796452,1.4287420658070318,0.7430273242446203,-1.0633711524717289,0.2212071769354345,-0.21941364873777994,-0.6303751218925041,-0.5089494488497998,-0.5319682494182969,-0.2883225554018358,-0.29586142567241125,0.00593767512653165,-0.9667225850891217,-0.37877411340217443,0.0980096245723618,0.13140719622863825,0.17891403611350734,-0.7700187538699768,0.24041500692578427,0.9309676176319303,0.7518270438371959,1.2340861886131456,-0.4329251911328131,0.39380598697409946,-0.8222671972453592,0.8180860417847853,0.7784603308365851,0.4227340655930299,-1.0678991030976517,0.31667022085773555,0.24447181956901023,-1.0920547335242163,0.9524486494639972,0.5617079205808,0.9035220455340861,1.0240484505149028,-0.8412823257229156,0.4518942797312539,0.12971869464352914,-0.5081742516300536,-0.21175552538261377,-0.945884178354479,0.23638500521183073,-0.4955506793720948,0.44048299433519517,0.5253397090290552,-0.028587596566049513,0.40180876167877555,0.6907343326928193,1.0152422634279492,1.1734157016050337,0.6538373968425807,0.8021187635690631,-0.6643762579842495,-0.24127199181155873,0.1544573147443431,0.16914962447636225,-0.912345508849846,-0.01836394960496588,0.2873960387146426,0.8341847875418708,1.1165843981367913,0.4786119134563727,0.8719696688484858,-0.284943206700288,-0.514844560083786,0.2199968777809449,0.8418699307908017,0.2818267256001339,0.9813666595672552,-0.9867921045046772,-0.28048136940502844,0.4229109143784815,-0.24073828683029666,0.7132876477791525,0.5209523175004948,-0.09977520470920193,0.5680400105938846,1.305417921973707,-0.09241252056010865,-0.4528964328446822,0.07168903807046814,-0.9241896670329932,0.021315125495890597,-1.6643352018907445,-0.07302346351939082,-1.3015123655121856,-1.0817407769424094,0.8000494677036143,0.7484393722946312,0.455271590575931,0.6274778701085765,0.018359744892600085,0.6988675109078499,-0.6728152948244814,-0.8439100644663646,0.7775782110895886,0.74827105179629,0.6903315662176635,0.9139533669988775,0.09824621432473013,1.3565052623922222,0.09782062331744232,-0.060684241392924575,0.6650441789074536,1.213174807361106,0.39024064929717217,0.5362243869613511,0.6267580186122312,0.7466607343370856,0.12617212554973198,-1.6535320754283391,-0.03294200108187396,-0.0059109626595538626,0.08573108417204701,0.5984275051330573,0.24904018364475447,0.672069337893785,1.5403137420056763,-0.27363829900330555,0.8849077148251266,-0.31140875954903846,-0.6377452614489658,-0.027598936955904874,-0.7857238560276822,-0.05287619270143873,0.41115217267388293,-0.29291405736585796,0.13104256679139836,1.345822663814944,0.941919322341321,0.3589819649749068,0.013854253101954707,0.49895729766660857,-0.1189818611740405,0.28492342889541095,0.27820436039150664,0.5625528620838597,0.1658320136820874,-0.6240107331917485,-0.33529389313382063,-1.8975517633351555,-0.48582971631935745,0.2160964192281896,0.3446444802595225,0.13546248834961985,1.029848978911833,0.9303836141470436,-0.34554057516721487,0.7319947812147324,-0.0463840908327966,0.2614820013631842,0.6540887709732903,0.9098876572583192,-0.7196438699753696,-0.05458046791174193,-0.507483487457563,1.1044188188439288,-0.4418592023579479,0.7768952584189844,0.5076578028017931,-0.8713408651402235,-0.8060442488465204,-1.0079512749300215,-0.2315322756703816,0.058539707034549644,-0.8932302857674335,-1.8106761642351734,-1.7890888036126293,-1.607699500157424,0.946063641265252,1.6960285115534683,1.791682262718843,0.669698633358576,1.5176115205318037,0.8938952016574948,0.23758056860723462,-0.9585509928244526,0.3794037944891908,-0.8946925871400835,-0.3038385654367357,0.03946135032693676,0.3181734497460965,-0.3169374199411078,0.22812427048991876,-0.23258959098495482,-0.8490228017380876,0.6337590001731012,-1.133914471901331,-1.324723431709291,-0.14321081740776284,-0.8611922983190955,-0.7078951683659528,-0.9260544916366902,-1.6732190450058921,-1.49549045637863,-0.7242837121079141,-0.11360521147868045,0.9178827953566232,0.9646730592730164,1.2686760968358028,0.6634575542619755,0.6573151531902017,-0.024962335623412966,-0.03090791396208901,-0.8739340296640087,-0.1746733974621546,-0.018109273131025283,-0.5582594013463029,0.9909633297243263,0.7063123926548335,0.20126158793708213,1.02743613025088,0.4813527459260343,0.03259625148142328,-0.7486471741673211,0.047743050158976105,-1.2146313737616132,0.1310078145669148,-1.2562400040933865,-0.8170520834634277,-0.7212901217072627,-1.2183059763804465,-2.173862136711112,-0.08369852942282437,-0.5602281409549772,1.6735502308229693,1.730609173650592,0.9669829162865778,0.9464037030076329,0.24790426779622082,-0.8438574550726627,-0.02764302761235103,0.17754528935777034,0.5141486886812962,-0.036450089667564356,0.9973480268561241,-0.2445398571927655,0.04938180363975371,-0.7003590680560721,-0.06631953786195798,-0.2354850025061185,0.3948075579360086,-0.5145412603848709,-0.8469446361634523,0.3551184511752482,0.5742729909285378,0.28173397454995336,-1.3569397798892473,-1.8577374990732543,-2.038501678856643,-0.6338467811857031,0.21060794408686187,0.7553543668510404,0.7034043898227528,0.1394410582073609,-0.5522347762878047,0.026404528926796664,-0.5772331351390271,-0.7429717858462601,-0.6872020416660728,-0.5984774629620724,0.43453338213756043,-0.7917263568643913,0.09040642325892034,0.4270846033365503,-0.13028644623712168,0.6554120082137741,0.8358495640208063,0.3343901180171357,-0.27807485445062985,0.9173212143374974,0.9636982604051013,-0.7916355398852564,-1.5857300272121335,-0.8541412243528457,-0.46111716428747423,-1.42796819392633,-2.227175736940987,-1.3042186880997373,0.47921219618951993,0.6731151803706302,1.3388503734241197,0.12360613853357379,0.24796834589025504,0.2032659675089957,0.8159924698482138,-1.0602706575758183,-0.5398041369682813,-0.2534127230996034,-0.23389182241926051,0.8835309470621777,0.1471088509159102,0.8505042376178535,0.23556983223451747,0.2886099949723047,-0.5154639109567551,-0.8271739226956403,0.2982194567022833,-0.6721401650655958,-0.47559407990794506,0.2504138816633187,-0.9971269830663759,-1.6937612991398494,-1.6107683630540564,-1.2100602844445691,-1.468969289361054,0.22278126521887162,-0.12402518162316799,-0.17495697693610687,1.2217143325554116,-0.03639287116686826,-0.2845050156674621,0.29325873531464347,0.07732684691446585,0.8153993554427365,-0.44007146595038726,-0.03487651794932953,-0.3457442427528139,-0.8908664802570765,0.14521546361834692,-0.550784570148571,-0.7095186063522224,0.3847837426697534,-0.9791248465360907,-0.4100443532899482,0.9663441117791562,-0.7206474931347768,-1.1892906953679097,-0.04793028104350379,-1.4119404672252094,-0.8596528250491701,-0.5340452982532572,-0.9608757781191236,0.24858630102304935,-0.36551448670850417,1.004727653034769,0.9452981315887092,0.9593295949594551,0.7896098362901791,0.765872594913905,-0.6267458221197605,0.6071859150090747,0.9857587537298687,0.8243480073708503,-0.05460281896892025,-0.2677252025829817,0.6405246916704903,0.704851270336823,0.326156098456043,0.5079606692185479,0.4710835250895771,-0.8481474104545959,-0.45330545782463094,-0.6100632023427339,0.629623909496973,0.8966352631813503,-0.2491558462207219,1.0962197309322064,0.6543042420137225,0.28225826389964814,0.7380544451914363,0.13630805179528255,-0.6290168555328707,-0.039437386323274634,-0.13502333693463295,-0.48267122470097573,-0.652510396796213,-0.7686612423890069,0.004403149536266624,-0.5738059941639664,-0.3122411995479173,0.8632220013289764,-0.6205882399840852,-0.2798052604896397,0.836136108415747,-0.7817310983414016,-0.7934493561055512,0.7532259475084487,0.23199815021486866,-1.1111744042587939,-0.2715747710646399,0.7592377096674586,-0.6128200674231796,-0.18740702128180697,1.5685766688427007,1.8632876820010973,-0.019608267140859396,1.5319884298642623,0.011503231272780598,0.19530494180474223,0.07131864845893839,-0.2824833669011316,0.16036487251206413,0.08819025327285594,-0.19636606872731308,0.8774119175404661,0.12318959866951223,-0.7219248569622483,-0.03652686781412458,0.37931461660239757,0.3477524555334286,0.5486711077951689,-0.03778307845981321,0.344931527876035,-0.04034252480521072,-0.3688487705299055,0.9078248534644151,-0.5367394503835421,0.8029461822557076,-0.65462495428728,-0.5566767516641066,1.1987882634396452,0.13848442704116343,-0.43436802578875444,-0.35281103131928576,0.28953185667263764,0.0860671827289418,0.10551188111709629,-0.33301732089452823,-0.39291687931215685,0.06701162868419461,-0.6180474279505566,0.022564119236812508,0.42275539185297184,-0.27467505222988725,-0.13757305177065077,-0.46062080934698296,-0.8486387180006221,0.7896947173589506,-0.23697421418088815,0.08580724528299966,-0.08883818180356862,0.2870180751087845,-0.763296767398435,0.6563135239620492,-0.9111156195835116,-0.18493401370298085,0.23474224960239276,-0.7582868420455353,-0.015576516275206339,-0.6248225400856953,-0.8852481305351488,0.4040197227589312,-0.5870791146542421,-0.567849750208104,-0.7504217591963502,-0.8991118857455767,-0.40695819179344056,0.4087709694101354,-0.6753664676654852,-0.8940043676864604,-0.8916800322526839,-0.9190963127690116,0.41090992838607066,-0.9929602907895587,0.4440386412419517,-0.029554459253027243,0.4566396367616816,-0.3087066280420565,0.15399283181935752,-0.28900628008099805,-0.697669131724292,-0.24258175158707695,0.48125053041508425,-0.5504496431056389,-0.6517674022575755,-0.7931849403124098,0.3118968747040056,-0.12354972666924002,-0.3036443281764205,0.616240029803416,-0.46345883500816937,0.2271089538839168,0.813203310934489,-0.012099756776919447,0.43728242564713193,-0.13461629910557793,0.8039056990101088,-0.40249296545709035,0.6088779052694713,0.1827409774615163,-0.17391792903099046,0.406912823428774,-0.472692016597539,0.5884357852785582,0.6645448404707688,0.7282463496937355,0.3367477527016247,-0.7805720534355245,-0.44181878481201853,0.6978071897030647,0.6554061822417827,0.6647727236629482,0.576447975581956,-0.49054349938359554,0.43655290728258356,-0.5222590616977774,0.29435273875007106,0.11508858342065698,-0.39940327531588227,-0.4600616995370084,0.04552421179746635,-0.46835079345262387,-0.8866746250378315,-0.5547902967456515,0.9021138897044623,0.15393080124037328,0.4608071748624558,0.9871297585904952,-0.2880877551389096,0.5446419915404042,0.059345124282369266,-0.4376037737761629,-0.9827961616670366,-0.9419867729011884,-0.9607339502045587,-0.15654067149071582,-0.5134744872820027,0.3504661057762075,-0.9457834852240765,-0.5727654072567172,0.6096329727904028,-0.6583593803277625,-0.7069712210199548,-0.6672365718796565,-0.1623782545393826,-0.488661692422081,0.7091102435219219,-0.800799778824623,0.09428831767488921,0.5527072119933485,0.6327006864505322,0.8265220606012635,0.6414595175962063,0.3492580963465708,0.3942324643339532,0.30487033560662957,0.6501568212730608,0.003068237080911196,0.3624183256789826,0.39445154082178435,0.5111042971645765,0.2931395828163815,0.8885841124137206,-0.9535611265139379,0.9122295461759029,0.6928811068211662,0.04915211446862355,0.9963319598731202,0.017446106254861427,-0.5053789460635532,-0.20892718089745754,-0.7852520732747434,0.7001488219346417,0.1554788364183548,-0.8896068351628477,-0.33336707933578347,0.716491808990436,-0.6446302732101281,0.23203962999980177,0.3083980608453043,0.9476612007371981,0.44933828437997336,-0.5907142201736506,-0.45650025611583844,0.39699433524595773,0.6653541189991952,-0.0757365077739538,0.46050060926484226,-0.5030616507194805,0.0237053086157879,-0.8537307278056165,-0.9063381257566019,-0.5375187845842804,0.10573595833892946,0.09250576880328398,-0.3253662640282431,0.9218290903482962,0.6844402281800808,0.8362909494561379,-0.6151726596781473,-0.13825489297369198,-0.07330921790732581,0.32065707537792676,-0.5284348002400303,-0.9558960624921566,-0.6133551879323453,0.6606524748153237,0.7571248042215348,0.48185864380927246,0.3321371481110478,-0.14445051297953482,-0.4516956565692194,-0.6932441122213839,-0.9193654428779103,0.9825532514942121,0.7451557579506922,-0.582223607665066,-0.03140778585760984,0.40649594839133396,0.551045570587932,0.6684190094012348,-0.6621821510041868,0.31539192241766556,-0.3977800028386709,0.032585844491681115,0.4947154023103688,-0.020380020289467726,0.5635659675363223,-0.8170320511904416,-0.01695487252945216,-0.4671105013531547,0.27827593078937274,0.2224708716618109,-0.2918967262276475,-0.21396226466212287,-0.5873607117899573,-0.071639644129325,-0.5400100966025703,-0.38990373349827734,0.20319925955064178,0.8004489877329848,0.2058979413802886,0.7629552540817166,-0.6079703400057541,0.4487850981756152,0.15612494228047002,0.6843448393783571,0.7269016563477153,-0.5870538700815886,-0.9442289722091404,0.7467432113627144,-0.4933739190228903,-0.6258211852125931,-0.5861446425479001,0.7252122343545563,0.5355622499462077,0.8665253191452245,0.43357893598733777,-0.16599263627355912,0.8595132610121752,0.42117864867302784,-0.5310903448355228,0.6025790403400193,0.12170541781063698,-0.46395269995740224,-0.15387446848563535,-0.008973086404347193,-0.865080745913841,0.1595326110623001,-0.05921564304264959,0.8416658512652881,-0.01882587175176198,0.9966815280457879,0.4899709624691371,-0.613305032127764,-0.7755341310605335,-0.45184436757544066,-0.592895134592542,-0.14534205820868173,-0.4805834620538454,0.5799023489701232,-0.07254537629600046,0.5945701450293144,0.31727107219990686,-0.4871991411652853,0.29360201268721425,-0.013806605916911747,0.26340312002920535,0.9004512153020071,1.175172362849563,1.6785596709274009,1.0027797150339894,0.3392104228302916,0.9044575099558138,-0.15442331953005753,0.2846883687766795,-0.3928815526208596,-0.5557458341282607,-0.8088037343000136,0.6739907938233725,-0.9887465917417442,0.9976082090715572,-0.9415297710494059,0.8138653177535253,-0.18756752096809204,0.22212742441293165,0.8243449073241194,-0.9760731254996081,-0.7695346331868098,0.6845023260860624,0.12171828219712005,-0.09559413015353443,1.043633129266631,0.355979479397071,-0.5170083731579834,0.7955708721451671,1.5421460467167272,1.9385968607264676,4.027590978373968,4.567291502241867,1.0372244028977275,-0.5348879252764824,-0.573158156721904,-0.69608363794387,-0.4919155563217423,-0.5179846155495355,-0.25642166112917253,-0.7180513847524781,0.24291946112005425,-0.6473949193860875,0.38489209028446214,-0.43928279885252675,0.671439125864977,-0.6347583729527884,-0.11269853622183472,-0.9602710033594939,-0.33725882417888386,0.3226026742049783,0.8321880028505033,-0.4422099736693215,-0.18889222796014166,0.5036888304296832,-0.3955623535252605,0.9461008896748306,1.681492093032081,3.8404148617519107,5.0662290162454395,5.21730825443215,2.0788779806194824,0.29414609298285194,0.6811869438564112,-0.17607699362326043,0.5770829848913527,0.9995649667314142,-0.2319513958807238,-0.08104024625157269,0.9494412298669432,-0.6130379173021383,-0.294218796444762,-0.43542997516640214,0.3888314196468776,0.3183065313425095,0.10425159240195225,0.8778858140484965,-0.8123879939761514,0.855497798790042,-0.4974520367224823,-0.06605297599015755,-0.6246008277091962,-0.28848103989251866,-0.38914473964209184,1.5753060477816208,1.4824308401190238,3.5341305614316667,5.720895481141176,4.1483862216961,2.3417584994863976,-0.3839824787677991,0.3187749077039762,-0.013831413239959553,0.21851566005834316,0.7546992288222583,-0.9893415187515365,-0.811719520755819,0.11154034895420728,0.8363723622202623,0.2608405205947799,0.763913065287628,-0.4983068468850369,0.3385592119767474,0.2801541768414014,0.7175433235214846,-0.2371162250586528,-0.3450973406272933,-0.2176363539905602,-0.21683392837261825,-0.3665626025297956,-1.1972612732684833,0.8560357641685615,0.798861647411243,2.5820482121903,5.936581136827195,6.36316159538733,3.8770977342336455,0.46426792739538914,0.6683845630105647,-1.0161079908560149,-0.14575288754290436,-0.4339274267352525,0.15799962008911714,0.38115096553077465,-0.1666809511941021,0.9613155396859177,-0.30397294435553945,0.5352443158289741,-0.9445037899458715,0.9323173772879905,-0.5189329177689517,-0.8501292671840261,-0.6452528156962809,-0.573272974618303,-0.6447719864228333,0.24275197161166406,-1.0124076666142763,0.7000947747154591,0.27100582825289854,-0.043591900642124704,2.3619997153122414,3.6958302568540065,5.484569469323324,5.156518882207895,3.1556112738312745,1.0480117945843308,-0.762751898787234,-0.9507344767050255,0.35282169102479677,0.4292197641665631,-0.5124260610606639,-0.002167056518594387,-0.5522508534873924,-0.4410066944301574,0.38685457952049895,-0.5872531424267735,0.45421657817567485,0.21210364975128226,0.4082106304366579,-0.3695126142307503,-0.3255318133192576,-0.7868439885007752,-0.6589985392226047,0.3528182358884302,-0.9075529238156739,0.8211700865849868,0.2742846491312856,0.22670855521909467,2.152262674933827,4.9653201851475295,7.174209469160131,5.244461131134862,3.2822605026531506,0.6720225809357958,0.3216531768033325,-0.27222737006818837,-0.35701791165943597,-0.894678927369226,0.3374343176395778,0.6140643038978124,-0.8061583835523702,-0.7273115087966191,-0.5581497956143047,0.36891620240147516,-0.8141535909093776,0.7249805172144932,-0.7619253678997004,0.7649688386034312,-0.6382682681768292,0.5758769129475401,0.7496537917080474,0.2246110268388002,-0.38812418314311586,0.35046007042398475,-0.1463007662795316,0.17109015281268736,2.002489805998506,4.856607401241574,6.322391969311024,5.676849796551572,2.4950532047675527,0.5965709538547073,0.6201333694120073,0.5907223035173588,-0.6496023565420027,-0.9503214484114111,0.5424285510150733,0.8504192075512401,0.51894467054138,0.3224899202883471,-0.3805828146978518,-0.3500117909621512,-0.541611138131515,0.4969042506282131,0.6829619414642989,0.01217860440671692,-0.9552340913071943,-0.563834401446816,0.21324141290663662,0.11137056743935436,0.6684879450335026,0.24757949328086587,1.0246846936273115,0.5442094949056299,2.1132159829904675,5.281639470956438,5.875036174630973,5.010833083679588,1.4764384158524375,0.3580426982689121,1.0623992014885644,0.3153107754454259,-0.43911128378933556,0.4908743164421376,-0.10180010307320096,-0.7558919965450187,0.5885564468973006,-0.9556721546242717,-0.7645938547801687,0.2832275533271156,0.19886764199987716,-0.13537620882063672,0.43176613362623906,-0.24796024348177004,0.41177729813792446,-1.0128572765361834,0.006499062874452177,0.2302278352758393,0.5608987256831788,-0.3494542969459481,0.34413260560193115,0.604327170698804,3.7354228747493337,6.350830022092506,6.856720164712081,4.467444423797977,0.2427547729730961,0.5388628214171326,-0.5325119553880654,-0.4857859705958319,-1.2856039819534861,0.6836132325377052,-0.2437199248332952,0.9041903897478123,-0.4295488755830404,0.21072067570255237,0.07780585753484659,0.8525720716991378,-0.7291306111131186,-0.6489552987585798,0.12040579310025179,-0.7259069738900708,0.8874760510950083,-0.9023600090362762,-0.3621370877869203,-0.011975565412131073,-0.6868645855228572,-0.044750367932829896,0.6112973277246918,0.9935123634348901,5.556495750698016,7.160852805740545,7.102012508299156,1.5778987759688166,0.16721542407322004,0.7058179746370099,0.5759347912427144,-0.6163919755199736,-1.2282870127888856,-1.0848567108841687,-0.9929067387166882,-0.48155327329706477,-0.992167827341635,-0.38536171920755313,0.5278032800261228,-0.7512714817072621,0.6041743484559805,0.25616273493949193,-0.7045338337050002,-0.8642597990196184,-0.8162732176347577,-0.5068500081448553,-1.1639381723766389,0.24982416493561183,-0.8675651406932362,-0.5354576096863305,-0.44845845731893613,2.7767059649188823,5.083078519752832,7.098944299455191,4.778283157021196,1.7137630669942485,-0.655963222840312,-1.0027292470290872,-0.5561515376638626,0.2472265197607178,0.09683792624153448,0.037105193988383134,-0.907441422075978,0.5847816978555114,0.30332953553802544,-0.8206391320346893,0.45819693205585676,-0.9342228288142966,0.27132658139329546,0.8416813262498861,0.5440940217754047,0.2940117757399312,-0.5967227776297266,-0.5608156908654736,0.5608690219292864,-1.071250566126604,-0.19255398506794286,0.8242836177218841,1.2979981349207688,2.877150094004487,5.0095162953240475,6.788995157005464,4.4815459792932,1.5609857436107897,-0.14073736026482192,-0.22642217301093615,0.07759390391952503,-0.3546335780597004,-0.9476164679724048,0.6063020641717113,-0.2432012603464342,-0.6667207842221705,-0.14379683106704214,-0.8986482005876777,-0.8850870228858099,-0.03326571464989003,-0.16298961537507162,0.5440653347925808,0.40759363583276004,-0.7101318415859723,0.6951786003109681,-0.24051857487740214,-0.3361271689135324,-0.5380534787217945,-0.6090786652537105,0.8853700790033376,1.0004478573382625,3.6740948508115414,5.342662781854576,6.6471775012782714,3.3497932607557677,0.44979497153376025,0.03589194822722366,-0.7381035019903315,-0.8951969617908552,0.20109604667411973,0.06923367788239793,-0.042838926966360436,-0.10152806942423498,-0.5180978879210821,0.4803118750164782,0.9648046664234478,0.5096394914186888,-0.821587756611897,-0.715384880736091,-0.6050743447383407,-0.16865212778869593,-0.9132696568229374,-0.19682240156769926,0.06998987257420863,-0.17695390102556957,-1.0351615449270548,0.6018533182312045,0.23578007030155146,2.33628500063973,3.7679682001568304,5.323638463793161,5.820325410406983,3.3589808226872613,0.40431647491366934,-0.5309085487621479,0.37690352619011475,-0.5569710595438845,-1.0454070782362128,-0.8002462304207786,-0.7310356340127293,-0.5137242440065825,0.14922538512179928,-0.42121945953192425,0.3856643785085734,0.8613590715652968,-0.6986934346622629,-0.5096134894595084,-0.24073071113298616,-0.27404459553528077,-0.21143549691475022,0.8786345261947901,0.9146238335595346,-0.5991666590052404,-0.8922147594662091,-0.3528041183250625,1.0147307004826522,2.629164286751008,3.6439992448513276,6.392583060748933,4.8792191076450315,3.090898496776492,-0.7519634273272926,0.8781421972505928,0.5360734444193619,0.9534707494598307,0.29600876221894756,-1.270175687911307,-0.28905961973376054,0.2505753338732286,0.7074882463604404,-0.6319875741784481,-0.4504363377027072,-0.6781732039470745,-0.16686921121040243,-0.43092191162442517,0.6212897572301899,-0.25999185418968673,0.18746663149715834,0.6883490730226591,-0.740579459317368,-0.03178909696755005,0.032903011165052114,0.9766982223542205,0.7278302829380479,2.721661825655208,5.4573801630052134,5.739684012154553,4.4693840141526655,1.6178538530684798,0.6227545613943279,-0.630217094482753,0.9423678217380647,0.5676554669437257,0.5956107105260153,0.7149990235474862,-0.4651751193947023,0.6604262727829325,0.21662377399743984,0.1645679604369732,-0.9977438836819152,0.6048051663226539,0.20501056710685606,-0.5439684075661242,0.9540144433763831,-0.5529049858042077,0.5354081353793376,-0.7223238560798815,-0.7325284966141442,-0.7703408047093265,1.3245746485671752,-0.18814430166392032,-0.2950313368130728,1.7746280208966394,4.037951536426861,5.291213598335001,3.4677752421756463,1.8356764553896177,1.0559934019073598,0.7911521355365537,-0.12480715717849866,-1.1963996189363906,0.6074586589614548,0.6863186989379888,-0.9879000915930369,-0.6809807852231721,0.1606686761661122,0.11570775066114622,0.23276823050985107,0.21113382746193876,0.7172386170079719,0.8191316906458701,0.2032649647122915,-0.7471681022515873,0.07547331224115972,0.06487756961725231,0.872545609867225,0.7936589089540159,-0.4446267207125943,-0.0069552316567852435,0.5868865128718455,1.7833041275788686,4.31569615531129,5.200429810399983,2.53063459739745,0.947845195466468,0.10973009765658004,-0.6892123053891075,-0.6910592803514404,0.8998370807787254,-0.43678358235694403,-0.6722568164719476,-0.12247787035039287,-0.4716654746579396,-0.26344109079943767,0.1516770795945794,-0.04136691998520359,-0.29852274745920404,0.5368830626058207,-0.18990514214936915,0.5980277146637747,0.6860579625905349,-0.7732130118923709,-0.24983238099104044,0.8936673095349404,0.9113870554855725,0.4612093289597221,0.8134861947280411,1.5925638174629304,2.896270621727867,3.634959924418342,3.7450822815663187,1.471676022437091,0.1613579978742723,0.5487655592578555,-0.10471432823885368,-0.7242029776651872,0.7427846938988365,0.2694578158139501,0.304665054981311,-0.33619962627698513,-0.487369601360199,-0.4939179913899658,0.2616537425337215,-0.42079097705869684,0.915859389565816,0.8824322877230011,-0.7319307982660608,-0.1315274457643334,-0.9459101505304721,0.3079289284434419,0.3295175410697546,0.8118000353717596,-0.6564050332121275,0.4255806958455304,0.5106444677500057,0.976445139091475,1.630549496614432,2.382737882768663,0.7456434220776171,1.8380256383120583,1.1978693532876836,0.9504329807026825,0.8899828056470196,0.11430107950436624,0.8955202240387644,0.6776231999034441,-0.8235625568387241,0.1395139141467976,-0.782245593640124,0.11390900755270394,0.1818203070101179,-0.9927722690266088,0.17385947317786044,0.6710502179668782,-0.22046374918437195,0.009498053730070843,-0.6758405671528112,-0.30840695662476514,-0.6642570632661213,-0.9197287780743604,-0.16714725320094512,0.1519392889443783,-0.15602850296591764,0.350113297537163,-0.30471972646805634,0.20667345363288514,-0.5682044431998607,0.29373681843380384,0.7724844193587184,-0.8365130087516912,0.4093186227986838,0.8241472950611812,0.565493180468188,0.8255286368602028,0.507734527947918,0.9313692988281199,-0.7034706121036276,-0.21160006392744046,0.2472311667870548,-0.9796442301765222,0.3116096124219918,-0.758094272850304,0.4770224790857698,-0.028177695932186886,-0.9212353954394701,0.10206004132016488,-0.9536891736964361,0.1313896071696563,-0.8716228712256875,0.8867387510060596,-0.7065043260242903,-0.07344116683938484,0.1668999491750509,-0.35123931554527976,-0.4180377365580603,-0.3823163687699511,0.2924812016349978,-0.5069309533337369,0.464297413709861,0.8082443164518012,0.7507915107499892,-0.26992298379326507,0.22279639786289485,0.7713700871137832,-0.008389398184787789,-0.44486947270087884,0.5126410841781428,0.39369561440270195,-0.0785002712230507,0.29443229466682275,-0.3748566873356769,-0.40572113162049606,-0.8048513656740353,-0.27933709712634447,-0.5080353656809975,0.44544825384794673,0.14775443527137733,-0.2830769397665247,-0.0327611721709844,-0.09591289647948242,-0.456947076246498,0.6555146418316413,0.15303890424453992,-0.9439957192240818,0.6963900082773316,0.25846574093880426,-0.42535417703797274,0.08268093126896892,-0.270513751303336,-0.5804014659660908,-0.13440705496230732,-0.22117694347716288,-0.2766876351152716,0.4933267784867337,0.28847369325923333,-0.6192087411070502,-0.6422393661213519,0.861590585471251,-0.10398183183244813,0.7101181959888208,-0.7384390700311982,0.4940993562653444,-0.572042160016923,0.1929669144364372,-0.25684233894572484,-0.7068631583373184,-0.8572857869992694,-0.8144779938091466,-0.16697216975758522,0.06318877496436981,0.6989627134974961,-0.7830531768368123,-0.35981280757595835,-0.6834756878144452,-0.06936110810450291,0.2556812943132736,-0.08960333993058156,0.799868916309612,0.89996922235326,0.9114942764277776,0.37084679712379764,0.9533889506833193,-0.03337527117243022,-0.3951541411327735,-0.04413638002733933,-0.7080270716699522,-0.22288903475113342,-0.8332443764105077,-0.6695548377138971,0.5050128107437635,-0.94297541485527,0.07651280296279017,-0.7367967002209688,-0.7787202170921519,0.8798200844570638,-0.39879412595303365,-0.6524489509147988,0.8483791607326019,-0.31075103709504037,-0.5298110481192981,0.32974177322470033,0.671659943335206,-0.208463021239687,-0.591625877003132,-0.12536899924413825,0.4853456181657716,-0.9212427143198343,-0.22666585858163946,-0.01520073893822782,-0.5709580136567012,0.4268111991679362,0.10349777332554022,0.48593764612008483,-0.5843296070737125,0.7830658217860003,0.49254728666800784,-0.9988347767953938,-0.43773656877156286,-0.7729392503256238,-0.7240906329705821,-0.3407879112660097,0.37295286911808145,0.4843349223488693,-0.7519414509552782,0.41616803264890057,-0.9261499532480023,0.3052756079054508,-0.5584574055343554,0.31774099436804965,0.4626169171491038,-0.9291641898557398,-0.68201983049529,-0.7110981315454679,0.9099085936580956,0.6931156059373289,-0.7700637482299526,0.10947666798153688,0.7405462499066842,0.41769164761663347,0.13964312807269197,-0.8798264700229068,0.11782983592574792,0.05912284565470616,0.12581596073218737,0.8993474562713968,-0.2272083905252631,0.5719604688286923,-0.09771056871246953,0.6617311742923819,0.4414732269460562,0.4134078508970649,0.7469656177550044,0.4520458668302425,-0.2439396393538024,0.09398414040410386,0.8345030923183673,-0.46145785480112145,0.34246688409743986,-0.19619359936939698,-0.9472445580668104,-0.24367549406825545,-0.06005406291010445,0.8164184623820803,0.3498642146658777,0.11273272064061678,-0.6642085509360083,-0.9020003941956136,-0.5525663654465538,0.14144845518815696,-0.21030074630293516,-0.4327837126666563,0.4904903148923303,0.3796822372735129,-0.36763409985453444,0.4800681907140101,0.048089757766552,0.14126955921495193,0.4272358097287803,0.9450777326556029,0.5817074444998287,0.5402669653975382,-0.40391667602522496,1.1167569793070284,0.7319007770536929,0.3594497173091651,0.8335626948532708,0.9093180782075712,0.5581582041846261,1.3481338877973879,0.42478131496068144,-0.5341572635731515,1.1822687319497833,0.1581860144912668,-0.14601067765719944,-0.5985520589997055,-0.17328198090890568,0.2551705220175504,-0.44903443210138216,0.336870524432753,-0.2406401970649772,0.7262931123481637,-0.8646012298351373,-0.12177728350835468,-0.6104911950122269,-0.9723624778003265,-0.9027240332587064,-0.30994244522451736,0.5129750372475832,0.9298899340750547,1.4312482672040179,2.3218192826426427,2.631705334016244,1.34277373800771,0.9103345233544484,1.6015337023475498,1.602700744052216,1.6509603545340281,1.3484266926401052,1.1975450082661567,-0.161652629632781,0.6978027863390949,-0.37740225765161667,0.05517623302210471,0.4308373545052038,-0.3113916916946984,-0.911726686097645,-0.7584731234987141,0.890090740798765,-0.7404505627173825,0.554403931990371,-0.38961530205518424,0.37313539346398106,-0.8148231495898068,-0.5274555869077276,0.2128429176878413,1.1289818314798241,2.1721040819499136,1.7160482867065037,2.5410868647282663,1.6467588589778273,2.333192298446086,2.4855303049829796,3.227332099594097,1.7363597035086715,0.8664250722765987,0.98151438558273,0.8459165826048224,1.0534549440799024,0.8876940726085826,0.48211740487400945,-0.06496947493396638,0.7118241901510818,0.27173656735809776,0.2335745748395175,0.42694918197694975,0.4507868319111741,0.5804609668012979,0.8775595793996638,-0.33164521556105486,0.18483530324264497,-0.24387416660833833,-0.023967312410989317,1.234988114700442,2.0569965617084893,1.4831853442600424,1.458034251111101,1.339906701450806,3.1594970412703254,2.5830579176165402,2.4017069579520527,3.3483728495190768,3.6884703121938354,2.6353294129887255,1.4435141374218305,1.8303289699197476,1.9485894200812568,0.4287263330721181,0.16470045206342396,-0.01801992289710146,-0.20630335896164742,0.39089386276697347,0.5871820484178671,-0.12812864062274065,0.8710203810272494,0.6935616499959663,-0.5817679889880434,-0.3015429855984425,0.09212807946522318,0.50558315869994,-0.00908747238235641,0.6529423039396114,1.823231745324727,2.290892319603249,2.7755675580816384,3.0367531291539107,1.9212806112385705,1.4282406230025824,3.6332214336259003,4.503415263864705,3.45476875842915,2.4621416666963976,2.5964152958155915,2.8885551228691426,2.541518416832461,1.191229042502537,0.8864663289698864,-0.8481349265596103,-0.9613211603599185,-0.9086852009776121,0.8907852797412574,-0.3979334332093629,-0.9391004960981979,-0.05354719147678133,-0.17679361285976353,0.05912601392874382,0.1873014030585392,1.1021325270282416,0.8331245656504063,1.4722681857952493,2.3903113805763763,2.73187418239159,3.734055736666856,1.4894163666200735,1.0471820694020242,0.22748843376219718,1.9995355649076911,2.4209140874336943,2.841079343221642,3.2858169960114094,2.1718506730341387,2.7248044840052374,1.8603442019207175,2.3972277758573424,1.1271719533705313,-0.34269422978902714,-0.24717998557525367,0.6768639879663443,-0.5564169558632013,-0.19246761474796115,0.8348785296614742,-0.39105633358974723,-0.39324053878291765,-0.747026173702771,-0.6648833315616666,1.0602749353408747,0.6078277925670031,1.6309539241541051,1.8349031777383527,3.4065654608759193,2.305866516507774,0.6490067730178719,1.1128568942815884,-1.2809467977722913,0.06720794933007242,1.6789587885084578,2.6128588024095127,2.258388357367167,0.6351723286721904,2.1356938203224463,2.69767015488311,1.6072704184910582,0.9087433373845879,-0.155295857612497,0.34662477474055153,0.9150650853794569,0.6300734999517739,0.5285028714983957,0.2586579618808629,0.4869911321945355,0.425602436873614,-0.22855106447663626,-0.6796317984675089,0.6599988068053191,0.4902976153392149,1.122848608909175,2.619365665332377,3.5087289688298835,2.7444537811013268,0.36076897810097386,0.14169244997474295,0.3732111096617201,-0.6921586943395241,1.4205869269641103,1.2974622362981831,1.581387806671257,2.4192169639376666,1.3593544158610216,1.7249981090848288,2.617700148576003,1.3549095494148409,0.15893102393497682,0.822948502175801,0.40278436264992945,0.5909355924094619,-0.3204867455350473,-0.09333743503866243,0.22640774961669696,0.5851103637443926,0.32279665984515626,-0.20890058161571007,0.7427098309223319,1.0641813979423707,1.7580385885304917,2.332504117241693,2.348072644187555,0.640751378687854,0.542699838584344,0.43173328827926905,0.7237703911897232,-0.014634542764169617,-0.6124072704069572,1.3939067724940974,1.1834102407598386,2.3608102561819457,1.9772301681276763,2.2129528034289736,1.2305114756235842,1.7480820071137968,1.6042125806637892,-0.7914488169149188,-0.21730776264534435,-0.7811743434498868,0.9717591997129511,0.07422550340267464,0.9085711697474865,-0.2698531392821313,0.005105319975183242,0.4485027517257254,1.318449427201426,1.7032143425294244,3.6910693242950736,2.8059192788396867,2.1403107146169367,0.1479003371775267,0.8913090089562794,0.22327022783801725,-0.8970828620027603,0.004787185600644339,-0.6362366055836293,0.8910390390598418,1.9532858587327278,1.2189777063258704,1.7423114379791205,1.9868707500759564,1.534733632014784,1.9497158884209733,1.1804787358047675,0.4773450061548459,-0.6771060468449235,-0.001197283132308602,-0.22749256662270456,0.2327475128996448,0.17513479580494185,0.3241827382702447,-0.7189293721022222,0.7761145028588685,1.634477984168757,2.220097053206938,2.4779968799716814,3.2735063651387257,1.2643401411145376,1.2017850479893424,0.8986424022415255,1.0139284840975604,0.38155503871640367,-0.8590472530385036,-0.13890698648786443,1.0101397446194136,1.9033544050542421,2.4683158998717802,1.0892344670189276,1.7923073467758537,1.3188157504847149,1.393193658431245,1.2724407270950326,-0.3674893246981722,-0.118115285914616,-0.2615112141902529,-0.89366811291521,0.44774136357438277,-0.5589951211903224,-0.6417024221294068,-0.4052862241390085,-0.0016887523334834231,1.113756796060678,1.634674815987872,1.2889518980651413,2.0784202248799963,0.9038986895200534,0.020410714740273894,-0.2583549912091858,-0.02989877049073164,0.26228462278517717,-0.44998027081980396,-0.34593135326407853,0.3620345707907817,1.3822691280669313,2.426916807057411,1.3950852370893692,1.0953402196335307,2.2207362066938163,0.45800100153215273,1.405929715428489,0.9212983771346976,-0.5217496760973852,0.945958446407585,-0.14353772513581253,0.09881141784184799,-0.23538504671453375,0.7570488952089403,0.12348057781112055,1.4481486875787446,2.1251407997342415,1.4770397757986204,2.19438316821493,1.8529259280831825,2.6164983945166673,0.44231583610722985,0.48355005377049265,1.1810428754831022,-0.27954204749965805,0.08030783112737083,-0.5764971465008086,0.08509704028649145,1.7165724956872654,1.3636627791814646,2.8691144881895925,2.6039660354215393,1.6161238194121863,1.4418963443369317,0.6607908931401805,0.6504700545614467,-0.43069876540056196,0.5137449113061252,0.7655506327661343,0.04725853376035216,-0.3582066178166814,0.1610687212304042,0.533494144566176,0.8212357979022322,1.4657135856545305,2.0442551726541156,3.128284033643366,3.291902621317697,1.3341491691795553,0.27336915729761935,1.280875619639272,1.1410719608493085,-0.49593886892034944,-1.4876314678278533,0.19725980580038965,0.7764210561714706,1.386030284570157,3.156872863528738,4.067651327751842,3.2537106989653086,1.3866158926543588,0.38815848678451026,0.0653628902294538,-0.19515600180348086,-0.28490832377700137,-0.5447612103175499,-0.9363247678926447,0.39114455865358244,-0.6257131502822983,-0.8333633739895754,0.6182815992167884,0.8800139627306025,2.7124350119338425,2.0571348594916117,1.9771528778092684,3.0006438514505813,1.4429248377558364,0.7676576734733931,0.8777313648478781,0.3862178422554312,0.5344571150835661,0.3804451848979865,0.558221920883936,0.76218750962631,4.046395056040933,2.9443558794791698,3.405375066858121,2.84963344842718,1.2357284531022517,1.298981816376306,0.7958921216375225,0.2856229133361483,0.60055285285011,-0.28485250831243225,-0.5325830553422961,-0.8707158049355046,-0.26373337515775175,-0.30958772997804274,-0.5984807607590973,0.6044995774690174,2.610970516466959,3.4054798267297905,2.4204718610298723,3.805625247590207,1.2612941903972972,1.5658402503048083,1.0188656578309572,1.3453719951849221,-0.37416593773803625,0.320240426517861,2.5249452772253544,2.9259116703134698,4.138193444959251,2.6267264503151466,2.6676482884209918,1.6309627341400452,0.9088312860840786,-0.3168579671797601,0.7207689538519528,-0.050456367183023265,-0.935624866708512,-0.46142706224255226,-0.10264015235705659,-0.5752188520944002,0.421911634751702,0.9029945920271931,0.03608882752888526,0.8459687392333717,0.7491451529436717,2.019852359112728,2.623100290589475,2.91664619084848,3.405579640882145,3.6450188418483416,2.121007035919222,2.728400940792678,1.8868664798339165,0.9588728353510487,2.1777608983005634,3.5928148358982703,3.117591373340042,3.1776135516843027,1.2011856344171659,1.631635416235655,0.6048510349899283,-0.02694340482957458,-0.8217250382844759,0.2663826709099934,0.274547165189688,0.5336570109280796,0.5523818530477125,0.7153599954592498,0.20442663819382223,-0.8627116054101038,-1.002781219409336,-0.1812781749246723,0.19928915913943124,0.6066838983109673,1.582932955984092,4.834311466849135,4.617298636400154,3.9421180670344214,4.5127326200003335,3.3604487862465318,2.281978099731408,1.6177898669401503,4.276464297928859,3.556406663567235,1.9176914587200047,2.440003192043437,0.9003740888723487,0.8147049130285546,1.063102603913646,0.4060328837670762,0.29829955685882664,0.7727385680035557,0.04837456976716936,-0.5993671318442586,0.9576188070690324,-0.3381123028277111,-0.12837980149098782,-0.6708993430508776,0.27901124591142484,0.2565571386050638,-0.22295488220176649,0.6524874354713037,2.209319126572154,1.4175084954343404,4.141476183681712,4.429013049076083,2.815706680352405,4.083082670426203,2.5234544728789476,2.6294326943202533,2.1863384512452235,1.768610323277932,1.5250177638934361,1.9048854559930768,0.2517978946070325,-0.5628947013750714,-0.2949756917354572,0.9201968278457557,0.37847837047757804,0.8939934876433093,-0.28015569900537796,-0.6744862311921,-0.7310010361221448,0.8581202711478491,0.8254328353612399,0.8842891613175372,0.3966923421960945,0.7112652463885057,-0.19318900036532358,-0.014106902792954366,0.852563042031495,-0.28032490201986593,2.371427132695313,3.145390142142083,1.9299259217619686,1.6379061326394513,2.1321456206148657,1.6065877468411975,0.7345359899173061,0.8702968570834058,-0.7031666148725092,1.0571831633559665,0.8128301552252399,-0.8945137327461564,-0.09308705303743893,-0.9876158776364116,-0.418506775947017,0.43296910035663294,0.060436938139255325,0.24953836868596313,-0.5292381092900629,0.34384944075211443,0.7425705628721293,-0.6073171882452368,-0.8158931560873051,0.6392768307232042,-0.8043984909314453,-0.5241840515375592,-0.1213686943557332,-0.4610200338077105,-0.09632939868773888,-0.021256841062761794,1.7694380485208474,1.6896272622659245,1.1459074624810683,-0.29014167725030826,-0.13010054068709026,-0.8760581781260331,-0.6294515476299235,-0.9629497979008411,-0.990825048173857,-0.5908192094606792,0.5217189664683526,-0.7502871910591908,-0.7736598145778388,-0.8595725970241119,0.006109056172935778,-0.37411507646079256,-0.8566087152949136,-0.7297350805120362,0.8906660401577753,0.3217672474503319,0.6276971024339433,0.9451900734656058,-0.3542756894251975,0.40039040655586233,-0.8521579834734052,-0.7030022151168593,-0.09928286411976206,-0.393124969316889,0.7197860059823964,-0.16545247761772142,0.3778216222860562,0.40754230998793156,0.011298526741537631,-0.3650669931595378,-0.767434549444398,0.5812648744220779,0.16698284334184277,-0.09142293093205756,-0.09234313648435966,0.551839706124351,-0.5427763308555764,0.31941761092716137,0.3035663568029954,-0.1369444202250012,-0.7920941406777793,0.560489728906971,-0.4208467453347653,-0.2764820414902236,-0.36623165603284735,-0.8831510938374518,-0.7821036965367487,-0.6138149399471542,-0.8232278436817748,0.8919229385012675,-0.8699470515664358,-0.7220410870293772,0.7418784482217673,0.4300185963081391,-0.49166215495578225,-0.7424328413211048,0.8261458673739264,-0.16314858547445277,0.9144761261247458,0.1553597793700654,0.9530749683547943,0.181606320952733,0.6462533812304196,0.8365384564964615,-0.9473595801017496,0.1581787101133656,0.8194496307755492,-0.5702765282462376,-0.5315308388073481,0.08988477074361456,0.7963094499910706,0.07565757231696657,0.12713746593840147,0.9810719526126133,-0.3980321434350871,-0.423767403212961,0.07057564087554091,-0.7493003091437638,0.7925147961778458,-0.3380804425923969,0.03108483206121937,0.027102376910989268,0.8731486251215392,0.24606972751655087,-0.9805141010954126,-0.5602136640917199,0.8121342528615139,0.9974477834521636,-0.9995638610981836,-0.786746421109485,0.45604576187841395,0.8377466339361919,-0.3550352677270585,-0.9505144138976787,-0.2759586854278717,-0.4412740902168677,-0.10925008231079747,-0.22013893985153477,0.3436818514106881,0.6540047022527617,0.4860317044742546,-0.9260778926331399,-0.4119285454069641,-0.32656762587790267,0.38132276296003464,-0.38845559260150697,0.9838631382255043,-0.06665106879089988,0.3295908743184557,-0.9432934417141157,0.2819389611652787,-0.7460601116815497,-0.1290170845313905,-0.08480451602576711,0.11733896415543943,-0.45472132386664477,-3.293955761347611E-4,-0.5847750134540455,-0.2677201039043915,-0.47345745276379847,-0.25133274972010056,0.9190845579944407,0.8958686475973012,-0.3617232904917711,-0.7511637478181068,-0.9444224183962542,-0.27361663052059715,-0.7045270422269223,-0.9412168616392373,0.7571471336643467,0.5067579424282111,0.029619873036993427,-0.3966616253727744,-0.3077706548422501,-0.21885700698564942,-0.21928644746456574,-0.5882289253125085,0.20242813753079392,-0.9696149795181968,-0.373933459650806,0.5135583061540535,0.7864344049193323,0.04600688831633017,0.5690722892350053,-0.17429503798333745,0.41434772491391003,0.7575776528359182,0.6645319209371299,0.661315668536476,-0.4824985901396279,0.7158419410534351,-0.28363683129419415,0.5867754727244276,-0.6379554297917769,0.6925066130520918,0.061667972454452435,0.7755952343049939,0.7009481846097823,-0.06865013520465313,-0.4582098673848336,-0.2668445873904728,-0.9091759086738163,-0.5452376936621589,0.5607312858586753,0.7321348037615518,0.13850273673979738,1.0468376455732336,0.3275210928052188,0.2515163376313156,0.4895448698706958,0.4064141904364289,-0.3289883168931013,0.8213305848858448,0.8178928412985214,-0.5876304517692599,-0.7679844867616397,0.6550208294475679,0.7486482898419395,0.9293348896268931,0.0696814273902806,-0.5626780608392714,-0.13520921589917156,0.6371717809076363,-0.8490772602848202,-0.15273644871653502,-0.900530898279368,-0.917364190384741,-0.7162843726518061,0.17300520302040387,0.6763568797350713,0.13343972090018927,0.6859931798663108,-0.11826397845626219,-1.0882431300083966,0.388816055049631,0.20560466889246778,1.3416138239565985,0.70840349352883,1.1719414808296371,1.3650559746438258,0.7873339515886179,0.22949184722990992,0.5862823298536133,-0.14748405844572285,-0.08299289691412678,-0.5847050266920433,0.45187811868282646,-0.4986434056970912,0.43087218801303284,-0.919603888193522,-0.9035116543750703,-0.5679995014733206,-0.7912514953498775,0.9170422580268089,-0.801704270300486,-0.842360901320484,0.9344271072659021,-0.040510852387420596,0.5689343396054785,-0.374556616013275,-0.3276480649348751,0.5037897963306184,-0.15885206074456176,0.02901273379653975,0.5787369850675486,-0.10501876113863058,-0.2872970315365043,0.8523124846423299,1.55193425195244,0.9194608378960867,-0.26431929050869973,-0.9253038181267184,0.4265024271308477,-0.7443893161040733,-0.12109767072192201,-0.06791624408973362,-0.20092309553476206,0.9888298132224533,0.25397796083379953,0.18558644019482218,0.7147907145055091,0.5823651174293476,0.6372438356095381,0.14794249789417416,0.3973941593091576,-1.1050066148234836,-0.8146045260310512,-0.27689452007752535,-1.2523309577027864,-1.3782286593502417,-1.1140605530972936,0.5372691188236229,-0.7545394256544704,-1.1537248917292937,-2.136776165488317,-0.8044237153648546,0.041624265711139946,1.2775503637716876,0.11776042326826001,0.7038771934083438,0.38789976118205266,0.8266197302526826,0.032234583639522585,0.9372165878797254,-0.1591122147896351,-0.8263240359021509,-0.233230111275051,-0.9599213780523566,-0.8304418753075853,0.8637883980502021,-0.37683434057935206,-1.4806885352943089,-1.3644737401640477,-0.6556699578128665,0.2848841738152061,-1.145263022417576,-0.26157977703329993,-0.7429254177019182,-1.8013471064295485,-0.002662029548846788,-0.716379351137372,-0.5582391514575534,-0.6890787049558269,-0.8553660892968321,0.024756327038140975,-0.6883408389589705,0.3804986478715557,-0.02914640037440027,-0.2090105562025013,0.6595867891884335,0.13581516000502347,0.15772086955805142,-0.7608302177080657,0.7179687875992149,0.29114671723567986,-0.323918978491059,-0.1174085849277764,0.06853579992558423,-0.21686137295401903,-0.4063144677419749,-1.0293062824023889,0.015437877811968512,0.15087741666920096,-1.1756023164764677,-2.315355641003351,-0.5384025934464112,0.22596490404668804,0.013293135594196323,0.07911786567268979,-1.8965018824262125,-0.026126483472982368,0.4037801506977432,-0.4289511044621926,-0.07085400423074535,-0.05544031968569769,0.0335556997046306,-0.9427946065306267,-0.8311054772968011,0.16036967360630783,-0.024198376478004713,0.731478757940762,0.9524998141702523,0.8467835797493461,-0.35061001013023185,0.09580421430096075,0.6940301644992949,-0.31875462617163874,-1.1175244880514266,-0.7446931728711609,0.5167648098992795,-0.7178381358057603,-1.4924408961104774,-0.7055306743699702,-1.138733334452063,-0.5279312208580771,-1.3543317718589982,-0.05442349318381615,-0.3285174180625642,-0.7096307653284446,1.1380722094690225,-0.9547447120557874,0.10159097808548609,-1.4328155858473688,-0.9483145655975566,-0.14970278012888436,0.04014379648248401,-0.48846480602810405,-0.5035981452377953,0.9296224662233383,0.7101012787770824,0.6062905012118591,-0.3548414531998174,0.43421868488473225,-0.05583639239811829,-0.11679900835931761,-0.010766749820488537,0.2791578971354917,-0.8715508298287514,-0.4117966634009864,-1.4930894873768938,-0.10810216365798572,-0.8162933309542776,0.4058225837672815,0.5761816545635562,0.17895929740490962,0.4380445858471791,0.10221853711729366,0.26503072087154206,0.5886138901675781,-1.6658954743951946,-1.7726602243920793,-0.4353187501962009,-0.6491925836212112,0.2563206743135303,0.5589036463602505,-0.2862190067471069,0.06113601303898886,-0.5164512799718981,-0.16856917983777797,0.6263108228774932,0.5606052468570686,0.2793793060320154,-0.2761328654545684,-0.43147133726299974,-0.9893277098838459,0.3575338781110338,-0.6785844179658959,-2.137343155529832,-1.8588532754293299,0.5564090625576716,1.1258229624462202,0.5388735891435055,0.42072585528824724,0.5123502945056019,-0.4745913549844151,0.18006476714693995,0.5823738153070442,-0.8142147500930267,-1.2940945083959257,-1.7298103133791305,-1.1621116344779991,-0.46827289925959487,0.5087674789478691,0.7670190923315378,0.07182097896663686,0.8163685544051644,-0.5003424214258103,0.6771722117807464,0.5744748337631049,-0.15349610033311295,-0.012934781491112768,0.2073960873145002,-0.39671598261438057,-0.2672599715331856,-0.931657964167486,-1.948877715235274,-1.1440697360429788,-0.49911716013308405,-0.09048459192367271,0.6804818117987083,1.801064963666117,-0.4932425030829991,-0.9803414000855032,-0.723044954791197,0.6467651165495198,-1.4352157617118688,-0.9011849819226849,-0.8501662399434459,-0.6650569708403955,0.6650115630431439,0.8329091149654257,-0.5968617389103884,-0.11798952569122823,0.37497499708117177,0.6743724096837564,0.8686697417572042,0.8956692109928439,0.15507950304232257,0.6842224015718253,-1.1279732793581299,-1.2547432982522884,-0.7793951674924325,-1.8243431349182386,-0.7472339360270259,-1.0058677074693627,-0.4209113288299212,1.8035147855704825,1.5601785006889328,1.7078636274557832,0.40535496970131757,-0.816013514141756,0.39543259548059506,-0.7715121813479825,0.13699994596742754,-1.566944224318046,-1.3038346766337257,-0.39453924312900995,0.8462089473650162,-0.17009246781172432,0.16436771751211826,0.6302403373742309,0.4572028967366142,0.8695788447938833,-0.8156522042281138,0.222088218139868,-0.06890076296738357,-0.23833886257798398,-0.3285057595968274,-0.5279826515412396,-1.6589497331473078,-2.014072546572384,-0.7748742901421943,-0.6702958622580091,0.11550468977149504,1.4470232776719731,1.2738214971973036,0.6872912951349277,-0.8775843011675736,0.17879193555468836,0.5556252697194073,-0.456549650948571,-0.49301151738986004,-1.941442343548216,-1.3996118684280467,-0.5545652238213515,-0.3506019154970759,0.9881391999879722,-0.594570169428596,-0.5334790676838845,-0.8135575918774702,-0.4556331385606709,-0.553163453698762,-0.30789211481647866,-0.18356129045647182,-1.1522413810104162,0.00472322127075998,-0.7285491986237967,-1.054233797828252,-0.7488089732341416,-0.5877975663197351,-0.15406604608736574,1.2281864581748232,1.8077982074169534,0.7899797332801751,0.4833713580661829,-0.7909426955893863,0.8374628224735008,1.1929145787835282,-0.1734299517120853,-1.4213415162484,-0.1464469008845523,0.18050570059110593,0.2853920043774011,-0.030716127981767514,-0.4147513653628742,-0.9774868375058601,-0.12658017329236437,0.32222345627938753,0.43493154314401816,0.2722986009807449,-0.38924106367997735,-0.12941777951307934,-0.9313895765842987,-0.11528904867251236,-0.5786564721910568,-0.1729571972381267,0.06979682596872722,-0.2365763989381606,-0.6287740401714628,1.73254144377594,1.2186353188008174,1.4522818527019097,0.932654733090472,0.46632921446099884,0.6853216230380212,0.07493603615070028,-0.9505730633485475,-0.23977482099404973,-0.5523975677053283,-0.5720802704718314,-0.9396826878904959,0.001829567779683619,0.36026895361141165,0.7372379363469869,-0.40331825000295085,0.48723707727626553,0.6915936503345019,-0.6442275309278367,-0.9854693767141988,0.3707843445081527,-0.670207893614192,-0.9310284261449673,-0.7571505140834534,-1.3305212383792366,-1.022284056810701,0.10668119896737271,0.17933729189761827,0.5888187688424024,1.3832793920154065,0.3791866382160707,0.8721077833817682,-0.4000092163691795,-0.21785300302316477,-0.012730145853489298,-0.44599789536384826,-1.7840106120073354,-1.4460853186190792,-0.877462720328238,0.5337969789370104,-0.5613396018754918,0.09492234517792499,-0.0765017273182239,0.058127310928633324,0.6674222270934405,-0.2644432175749807,0.853220615281356,-0.06493075294981361,0.8187842654518446,0.08642670165728898,-1.4516983330247908,-1.0701677904381188,-0.6424993894629757,-2.122009027635013,-1.4573313479697407,0.8997187547894567,1.9658291658232727,0.7688857686744833,1.5367095582899133,-0.28984977115161115,0.021680368563232896,-0.1568143232367978,-0.9855441753992639,-1.1190435904808238,-1.1097064590570362,-1.5999257641098434,-0.6067677912929673,0.36840828413068927,-1.1334968579692029,-0.06697754925409864,0.354827002456632,-0.39793481588195306,0.08588761220656216,0.38489966567264,0.2764800736284629,-0.38405775640805023,0.06604084992333203,-1.340601027820442,0.3947270142149506,-1.021299695916123,-2.622277715373522,-0.582434424357043,0.09641165103973888,0.9263492276988222,1.1048223470143306,1.0628183922313763,1.0759413553939106,-0.09755937793389105,-0.3755503603880149,-0.8908502995397903,-1.0022134654604034,-2.568726149148776,-2.4052442638895593,-2.3575697920765943,0.08384993108739908,0.09244068422911994,-0.5985442671966538,-0.7037340528121535,-0.40437988472105935,-0.9073600906352817,0.9830773204490142,-0.8784307517774737,0.15520639955814658,0.6472855110858775,-0.4216700731686788,-1.2352843679692587,-0.5823389609212167,-1.6390312131487286,-1.9046224462377737,-1.9612252774034395,-0.21420430483409317,-0.9131974808998209,0.08853872082549631,0.41756306623217165,-0.5141420481512363,-1.1188445203198345,-1.2173011569214993,-1.4765094670068368,-0.9663915155979624,-0.5419570466123882,-2.321164145326358,-0.7385821624794446,0.5273510073475076,-0.3014206374253261,-0.24927717482673653,0.6118034434265928,-0.17145851686702304,0.232493652835007,0.45473140641179155,-0.6190941946073318,0.7452897522948917,0.2611589557399737,-0.8329167658077472,-0.6486479268925427,-0.13509614019780208,-0.7322388932642451,-1.976282747181907,-1.3589704084269012,-1.2346758762864898,-0.11458861594378728,0.11757727099949791,-0.3120699628776614,0.39285029391264964,-1.8299834974500573,-2.311528523918797,-0.2330021183032077,-1.4059478942019166,-1.0104842692711442,-0.7877067765859851,0.18980587978116512,0.7761917729599296,0.13814599695341437,-0.7863405942831935,0.4446673845904808,-0.6319462369732513,0.5151435200545795,0.30583167468555894,-0.5575048750573992,-0.7238858780398343,0.8939299010672176,-0.9247679765530449,-0.9820005126514062,0.7464768605579741,-0.8332768672139325,-0.18822935878658167,0.21696815071050604,-0.34518292448628535,-0.14496403330546334,-0.4107486018438916,-0.9276636118646846,-0.4830150029570189,-0.7696012459172478,-1.6502621194583404,-1.519432241451092,-0.3388156550607274,-0.8728904053428431,0.2450207902758207,-0.8287031406062584,-0.6847510977547027,0.043142259822428766,-0.5840505010220789,-0.13179448094990032,-0.4488477869246339,-0.04907407165485189,-0.1271353626802958,0.8859115209735633,0.6294211568259982,0.9396097964125387,-0.3424642651469418,0.47829190810299516,0.02299938705431724,0.23865039123403067,-0.6091247364827875,-0.5886288478964802,-0.2053117481973999,-0.6867238894060205,-1.8410427860778154,-0.9484145673879196,0.1430537465371681,-0.4934449790363065,0.21456313241845407,-0.9387452352112773,0.3973130398360065,0.07973624191594006,-0.40137017290757565,0.6205451697714337,-0.4540664419241176,-0.7904022326930292,0.6337437777041895,0.329711802345862,0.7984860256918925,-0.37700462738269525,-0.05162620315934152,0.6471774420606715,-0.0695699536340193,-0.9777174822343737,-0.2773803396275931,-0.9185828800806961,0.8452132251859888,0.8444254501503857,0.7766912060860035,-0.7435331014168565,0.5298623936599954,0.7344710481168839,-0.5278660311209915,0.6401988867442894,0.15881811354625822,0.7647519049825245,-1.0841921073513414,-0.12828970424384448,0.5497599040735918,0.5776792227713821,-0.09724199924348544,0.05981432875745786,0.7054428477054571,0.7249549296720588,-0.5479247680766071,-0.4557308231356349,-0.8497403673600693,0.7332643757134942,0.3109136025596533,-0.5284652280339524,-0.6927438851972336,-0.8075711392477776,-0.3170813137753147,-0.04387842508645812,0.2401381677029823,-0.04000220551852672,1.0374014358075003,-0.08448309447623052,0.8278949151537736,0.3477405129613075,0.18559729172577225,0.6799024362444723,0.5059654990178657,-0.5253301210833802,0.507283244086105,-0.214410193184513,-0.42957092759378235,-0.8650075149635253,0.15237200499834788,0.05547844477545773,0.22911215285014866,-0.9028557557789547,0.1883944284632629,-0.4983342301170796,0.15538606281950357,-0.9108911687582433,0.9201590762198602,0.005385085454224781,-0.9624384915611419,-0.6067083014124153,0.7697617797100669,0.6115676301520119,0.6192153719318132,-0.08252960825012612,0.11649248677474722,0.8824856330864419,-0.6296623531878847,0.0784549265006842,0.2187709707616563,0.9773454039896816,-0.325662687445952,0.19261704843477157,-0.33652841519724536,0.9770452987188898,0.15745877622308396,-0.2405507088490803,0.9247704536610499,0.08582238815397647,0.9520397224711582,-0.08012372000351059,0.6402406468250934,0.30126170986553547,-0.8533464354244988,-0.039769162837327565,-0.4189351643778876,0.9050246478437178,-0.5482389180489697,-0.8511803118979637,-0.0251277164465753,-0.3010825796393408,-0.8026126506377622,-0.5794788255316252,0.833849849682957,0.29568718102789093,-0.8202685768196585,-0.5341274435627439,0.24741649177521996,-0.028801519489259242,0.5865051674762254,0.6346201382677967,-0.7821089957794698,-0.4055913870082646,-0.7438099449622302,-0.2702794976280609,0.5492243215103889,-0.026174090921139648,-0.13570999304665832,-0.7537023414154342,0.543007651780856,-0.40609945453168117,0.280049687959399,-0.09892347873522711,0.8126081909709624,-0.8379365197922426,0.2999983735865892,-0.5986730171595063,0.39542544486527986,0.6468942007486749,-0.7599307487678635,-0.6816285446582915,0.524901614576978,0.5601639974745485,-0.54406394091011,0.6592219983643761,-0.08194085951531016,-0.8797331016766905,-0.23840194082562305,0.27092917880202694,-0.7590188648417859,0.6318162933728118,-0.07086367526321768,0.565741677423675,-0.46621117456981875,-0.07404958006938034,0.9779537741662558,0.22118982348899974,0.808312403527295,-0.9718440027004869,-0.20029686902440247,-0.5122772921352312,-0.3148013414316333,-0.6448154517664308,0.815496592140109,0.5275436318545579,-0.2814168690793577,-0.3100979503087742,-0.17511788942208395,0.8118047177581402,0.8889918864849797,0.9426774326688208,-0.018537677989097556,0.019337226735260726,0.4999857962659433,-0.7198181287233312,0.9179212452696246,0.10860872500050789,-0.6333084207727839,-0.4127640664207861,-0.5563832898485612,0.27561558502355554,-0.4357880751982144,-0.5753926113925671,-0.04921556486030254,-0.6360670628517853,0.08644413131213269,-0.3445718802855702,0.6907934280723669,-0.04083827173096455,-0.5777791948930391,-0.26483548809046464,0.4197797270609249,0.8785269049629048,-0.7907659320628091,-0.705159540736872,0.5633787151617304,0.05739659772982342,-0.31715451075478684,-0.905521182239365,-0.9868344744718363,-0.06199185995735901,-0.49397561260272327,-0.31650774796958037,0.9428041856732523,0.381702184891233,-0.2517023831204096,-0.8229802114724261,-0.3802035250454114,-0.14551805330024312,0.27573501354601304,0.44196985782512765,0.08911158157963106,0.1767295952102892,0.6206347574283555,0.6838039571044228,0.8178715658855427,-0.5185713768379239,0.5187141781665243,0.9348429855486338,0.9156509655788845,0.19125522041139176,-0.26674841240079394,-0.7328330115949515,-0.6171510236641857,-0.19658096442146356,0.5297655444298055,-0.3120740294212043,-0.010024743298490521,0.062147129225377934,-0.6975412426790799,0.7118066534126083,1.009598187593711,0.8514988191190067,-0.3138024392401563,0.7373093888231452,-0.38511793548983225,-0.6096584619338705,0.5462096785813322,0.7211070128589796,0.6957700651028556,-0.4991312000985173,-0.18487083368261792,-0.4888188277115899,-0.6755543087030149,-0.8309680734587457,0.8850417773957808,-0.332007156429879,0.1017040439089929,-0.6127748869039775,-0.8564007236839435,-0.1523690273874172,-0.55323923841591,-0.5101721259740405,-0.7943428497878816,0.16423282967527267,1.0567574135493658,0.3107581138712419,0.08486196379463763,-0.6891855040102136,0.48960310439087407,0.7212739982790286,0.881592125861957,0.5984694610036408,-0.6893327819070293,-0.3408444054239344,0.7764516231462556,0.40705862055075814,-0.7461760872031779,-0.6357566705703348,0.6080293334319693,0.5606473613869907,-0.9561775669894277,-0.8983362526487919,0.05103103158219735,-0.9591899946319711,0.017536169043324,-0.8106131577232831,0.5382570343227475,0.21050600601390657,-0.9305122714121029,-0.8692201278696137,-0.5226979939043883,0.818052614066537,1.2750448761258102,1.587169255552049,0.4152838000790238,1.3381213161577192,0.5781858470127732,0.7712524144861768,0.3701848563780355,1.5365507290947584,0.8820115156958184,0.7660474536778242,0.08772799032247544,-1.082457779123958,-1.303440979750932,-0.3656516184261559,-0.7030478407893355,0.357055875020437,-0.17824347150771255,0.3651805826670582,0.5959173494040961,-0.9529935217726115,0.49171987207111845,0.5922690697177613,-0.7319193644518938,-0.4660797320385286,0.2570362390434532,-0.23099954752500293,1.452728489927663,2.2435254035922783,0.8346577028703459,1.7777831229900607,2.1853253288481778,2.2562963728435825,1.4527201427444936,1.041000028367134,1.5547481655394213,2.5125724849555824,1.200643477360494,0.3466639667314818,-1.3766860915792964,-0.4178591192299026,-1.3913963952460915,-0.260249333567383,-0.5511606654862974,0.6796205682657187,0.9893001426119868,0.624362817702613,-0.32304043572614094,-0.5477437859162297,0.31498280554740843,0.5111602246508917,0.12934764994966175,0.2605521962478501,-0.5243894919739566,0.14985870924430142,0.9221853542564977,1.502288684245887,1.3447124722965091,2.0837343505690846,1.5888302605793567,0.8234909618633904,1.7527552520385177,1.9971039322795565,1.0741505132222398,1.5565380244233313,0.5336989341332085,-1.4241850687987097,-1.301544837583826,-1.5850870734800337,-1.9696128592312332,-0.7503426989801492,0.29675492875019843,0.30907873243296125,0.7504491217428209,-0.0990249063633073,-0.31402112315992836,0.5960088883076757,0.19893484422699048,-0.08527227939761262,0.9198843491614364,0.30014671011184096,0.4877445594050896,-0.2026575546712665,1.1544968274356666,1.612641972736655,0.372230486406087,1.2621210719751614,1.3403960150457797,-0.2685233055644531,-0.7961449428018191,-1.1143019512995533,0.06256014065675927,-0.046172089756989054,-1.3002342596849565,-1.3595397977805614,-1.3540186053357488,-1.8071444434028607,0.29655534476936835,-1.1952747941029092,0.09300545503970803,0.3419516915733108,-0.04028026074003637,0.08416707828017755,-0.4083776507092467,-0.3515476355419358,-0.2939277684013659,-0.5885257332073424,0.4693077318919634,0.7526974797839071,0.495195642627675,-0.26194734476841636,1.4588709110414497,-0.24679015206323499,0.5739685271438015,-0.21571309929743449,0.9527871244716549,0.12276958728557247,0.23705627445949165,-0.27982033317527316,0.15545782575022316,-0.8177975478880388,-0.6003461309317805,-1.7476310827613144,-1.4227647695539318,-1.17685311531842,0.3444770256950373,-1.0624853851102332,-1.373949114362116,0.22949401363008617,-0.33225458591226764,0.24126783221653314,0.33179149697652366,0.5576702190772413,0.5496799473730176,0.6139436761693886,0.37305848828860927,0.25369812679951087,0.7587217727713326,-0.9190848064383413,0.10219944687455886,0.3643213595018475,-0.33328509941046824,-0.5191810379354097,0.794613149367,-1.1736181585067205,-1.0048011095930158,-1.4134239871810748,0.10023661752962403,-1.9260628746167325,-1.806325473171056,-1.1447383786577026,-1.5240777520409998,-1.1610283111840545,-0.12544529848920968,-0.026274865199618736,-0.3999897569148742,-0.5663791542863706,-0.09912639235428757,0.02554432860505732,0.614817644995072,-0.6931934368843049,-0.9373571460444894,0.6456061711026213,-0.03345980849089999,0.04166699765288324,0.8549506479394132,-0.989618767029453,-0.37282999182524623,-2.1415655949881396,-1.647004742856818,-1.4632523877869779,-0.6642553782075169,-2.410355297337625,-2.668428052371668,-2.5502308889711545,-1.5486227490358166,-1.504198559419128,-0.4697086213502689,0.6173696081544142,0.08255890362243905,-0.141669317411658,-0.38293893994757455,-1.2433609877284502,0.12603567873044386,0.19914934219002892,-0.5830567068643432,-0.6064884928053955,-0.33039415235770053,0.1733151703757363,-0.7779323147033237,-0.11613234368272848,-0.4301779759287153,0.44349465016028977,0.5545142942705046,-1.5624013364790386,-2.2755026154192564,-1.1196686605080481,-0.9630496960073066,-2.478816762694311,-1.8197880977953156,-2.0933020825042385,-0.8223066621097916,-1.5515366799777235,-2.8802624544746496,-1.6738069850274706,0.26574883431146606,-0.004736918661227428,-0.2317333674874043,-0.707768166424055,-1.1289381382952215,-1.102567497295382,-0.11151926081576631,-1.2916334354960293,0.6227236280454307,0.4478776660647985,0.8541110190522663,-0.5578628748789742,0.3920087977433151,-0.551336492852262,-0.284998624894801,0.7853300209182167,-0.22310527376113456,-1.324891927123199,-1.6144573251322978,-1.6695209176584098,-1.2755781119562912,-1.013604627103181,-1.140913553497394,-1.640716730933341,-0.6055900655772342,-2.9688426801122714,-2.640061110782123,-1.5415263455157187,0.6195301228922242,1.5151948070986911,0.256723730990029,-1.2904861056979506,-1.2705148351845146,-0.8911807643310601,-1.856684285228348,-0.021362984928583073,0.5234374027742725,0.5132960393028501,0.5881488745576993,0.4719148996012198,0.9094801241575439,-0.9503871901235489,-0.06253502805314234,-0.7212600328755372,0.4908133686425223,-1.938179345536083,-2.2263865421509044,-1.5611828297554846,-1.3739662137299657,